{"learner":{"attributes":{"scikit_learn":"{\"_estimator_type\": \"classifier\"}"},"feature_names":["koi_period","koi_time0bk","koi_time0","koi_impact","koi_impact_err1","koi_impact_err2","koi_duration","koi_duration_err1","koi_duration_err2","koi_depth","koi_depth_err1","koi_depth_err2","koi_ror","koi_ror_err1","koi_ror_err2","koi_srho","koi_srho_err1","koi_srho_err2","koi_prad","koi_prad_err1","koi_prad_err2","koi_sma","koi_incl","koi_teq","koi_insol","koi_insol_err1","koi_insol_err2","koi_dor","koi_dor_err1","koi_dor_err2","koi_ldm_coeff2","koi_ldm_coeff1","koi_max_sngle_ev","koi_max_mult_ev","koi_model_snr","koi_count","koi_num_transits","koi_tce_plnt_num","koi_quarters","koi_bin_oedp_sig","koi_steff","koi_steff_err1","koi_steff_err2","koi_slogg","koi_slogg_err1","koi_slogg_err2","koi_smet","koi_smet_err1","koi_smet_err2","koi_srad","koi_srad_err1","koi_srad_err2","koi_smass","koi_smass_err1","koi_smass_err2","ra","dec","koi_kepmag","koi_gmag","koi_rmag","koi_imag","koi_zmag","koi_jmag","koi_hmag","koi_kmag","koi_fwm_stat_sig","koi_fwm_sra","koi_fwm_sdec","koi_fwm_srao","koi_fwm_srao_err","koi_fwm_sdeco","koi_fwm_sdeco_err","koi_fwm_prao","koi_fwm_prao_err","koi_fwm_pdeco","koi_fwm_pdeco_err","koi_dicco_mra","koi_dicco_mra_err","koi_dicco_mdec","koi_dicco_mdec_err","koi_dicco_msky","koi_dicco_msky_err","koi_dikco_mra","koi_dikco_mra_err","koi_dikco_mdec","koi_dikco_mdec_err","koi_dikco_msky","koi_dikco_msky_err"],"feature_types":["float","float","float","float","float","float","float","float","float","float","float","float","float","float","float","float","float","float","float","float","float","float","float","float","float","float","float","float","float","float","float","float","float","float","float","float","float","float","float","float","float","float","float","float","float","float","float","float","float","float","float","float","float","float","float","float","float","float","float","float","float","float","float","float","float","float","float","float","float","float","float","float","float","float","float","float","float","float","float","float","float","float","float","float","float","float","float","float"],"gradient_booster":{"model":{"gbtree_model_param":{"num_parallel_tree":"1","num_trees":"600"},"iteration_indptr":[0,3,6,9,12,15,18,21,24,27,30,33,36,39,42,45,48,51,54,57,60,63,66,69,72,75,78,81,84,87,90,93,96,99,102,105,108,111,114,117,120,123,126,129,132,135,138,141,144,147,150,153,156,159,162,165,168,171,174,177,180,183,186,189,192,195,198,201,204,207,210,213,216,219,222,225,228,231,234,237,240,243,246,249,252,255,258,261,264,267,270,273,276,279,282,285,288,291,294,297,300,303,306,309,312,315,318,321,324,327,330,333,336,339,342,345,348,351,354,357,360,363,366,369,372,375,378,381,384,387,390,393,396,399,402,405,408,411,414,417,420,423,426,429,432,435,438,441,444,447,450,453,456,459,462,465,468,471,474,477,480,483,486,489,492,495,498,501,504,507,510,513,516,519,522,525,528,531,534,537,540,543,546,549,552,555,558,561,564,567,570,573,576,579,582,585,588,591,594,597,600],"tree_info":[0,1,2,0,1,2,0,1,2,0,1,2,0,1,2,0,1,2,0,1,2,0,1,2,0,1,2,0,1,2,0,1,2,0,1,2,0,1,2,0,1,2,0,1,2,0,1,2,0,1,2,0,1,2,0,1,2,0,1,2,0,1,2,0,1,2,0,1,2,0,1,2,0,1,2,0,1,2,0,1,2,0,1,2,0,1,2,0,1,2,0,1,2,0,1,2,0,1,2,0,1,2,0,1,2,0,1,2,0,1,2,0,1,2,0,1,2,0,1,2,0,1,2,0,1,2,0,1,2,0,1,2,0,1,2,0,1,2,0,1,2,0,1,2,0,1,2,0,1,2,0,1,2,0,1,2,0,1,2,0,1,2,0,1,2,0,1,2,0,1,2,0,1,2,0,1,2,0,1,2,0,1,2,0,1,2,0,1,2,0,1,2,0,1,2,0,1,2,0,1,2,0,1,2,0,1,2,0,1,2,0,1,2,0,1,2,0,1,2,0,1,2,0,1,2,0,1,2,0,1,2,0,1,2,0,1,2,0,1,2,0,1,2,0,1,2,0,1,2,0,1,2,0,1,2,0,1,2,0,1,2,0,1,2,0,1,2,0,1,2,0,1,2,0,1,2,0,1,2,0,1,2,0,1,2,0,1,2,0,1,2,0,1,2,0,1,2,0,1,2,0,1,2,0,1,2,0,1,2,0,1,2,0,1,2,0,1,2,0,1,2,0,1,2,0,1,2,0,1,2,0,1,2,0,1,2,0,1,2,0,1,2,0,1,2,0,1,2,0,1,2,0,1,2,0,1,2,0,1,2,0,1,2,0,1,2,0,1,2,0,1,2,0,1,2,0,1,2,0,1,2,0,1,2,0,1,2,0,1,2,0,1,2,0,1,2,0,1,2,0,1,2,0,1,2,0,1,2,0,1,2,0,1,2,0,1,2,0,1,2,0,1,2,0,1,2,0,1,2,0,1,2,0,1,2,0,1,2,0,1,2,0,1,2,0,1,2,0,1,2,0,1,2,0,1,2,0,1,2,0,1,2,0,1,2,0,1,2,0,1,2,0,1,2,0,1,2,0,1,2,0,1,2,0,1,2,0,1,2,0,1,2,0,1,2,0,1,2,0,1,2,0,1,2,0,1,2,0,1,2,0,1,2,0,1,2,0,1,2,0,1,2,0,1,2,0,1,2,0,1,2,0,1,2,0,1,2,0,1,2,0,1,2,0,1,2,0,1,2,0,1,2,0,1,2,0,1,2,0,1,2,0,1,2,0,1,2,0,1,2,0,1,2,0,1,2,0,1,2,0,1,2,0,1,2,0,1,2,0,1,2,0,1,2,0,1,2,0,1,2],"trees":[{"base_weights":[-2.7728304E-1,-5.056079E-1,2.1737432E-1,-3.11631E-1,-6.173716E-1,4.020567E-1,-4.4616306E-1,-5.076924E-1,-1.8401942E-1,-6.44485E-1,-2.2978729E-1,5.195335E-1,-2.7883545E-1,1.2170381E-1,-6.766918E-1,-7.0588243E-1,-4.4522402E-1,-3.6171198E-1,6.567929E-2,-6.652389E-1,-3.9382246E-1,-7.208877E-2,-7.1098275E-2,8.309232E-1,1.7582414E-1,-4.6919438E-1,1.7843862E-1,7.1530247E-1,-6.3800913E-1,1.0344825E-2,-6.907392E-1,-2.5544848E-9,-7.2131157E-1,-2.4962184E-1,-5.495421E-1,-3.881857E-1,8.5714287E-1,-5.1361915E-2,6.064982E-1,-4.863906E-1,-6.8279123E-1,3.3707863E-1,-4.8206607E-1,-4.559271E-1,5.022624E-1,1.5942025E-1,1.0273381E0,5.2038157E-1,-1.2795131E-1,2.6548631E-2,-5.671078E-1,-3.931035E-1,7.8947365E-1,-1.9480523E-1,1.0140845E0,-7.1641795E-2,1.0344825E-2,-3.1168836E-1,-7.114518E-1,-7.374302E-2,-2.5544848E-9,1.6097559E-2,-4.2580653E-2,4E-2,-5.8197435E-2,4.225348E-3,-4.3390363E-2,1.1351352E-1,-2.5544848E-9,4.7899157E-2,-2.5293497E-2,-2.8301893E-2,7.854077E-2,-1.7241385E-2,-6.1720073E-2,-6.9054484E-2,-4.50512E-2,7.3846154E-2,-5.454546E-2,-3.6174644E-2,-7.200001E-2,-6.0515027E-2,-8.571433E-3,7.810651E-2,-3.4426235E-2,5.967446E-3,8.571429E-2,-1.1009179E-2,1.08513854E-1,4.1347146E-2,1.02030456E-1,-1.9346943E-2,7.113402E-2,-3.333334E-2,7.317073E-2,-3.7645043E-9,-6.237007E-2,-6.153847E-2,4.054054E-2,-2.0689659E-2,9.8230086E-2,-6.393444E-2,9.6E-2,1.119403E-1,-4.2857148E-2,2.7272725E-2,-6.2264156E-2,-2.5544848E-9,-7.1923435E-2],"categories":[],"categories_nodes":[],"categories_segments":[],"categories_sizes":[],"default_left":[0,0,0,0,0,0,0,0,0,0,0,0,0,0,0,0,0,0,0,0,0,0,0,0,0,0,0,0,0,0,0,0,0,0,0,0,0,0,0,0,0,0,0,0,0,0,0,0,0,0,0,0,0,0,0,0,0,0,0,0,0,0,0,0,0,0,0,0,0,0,0,0,0,0,0,0,0,0,0,0,0,0,0,0,0,0,0,0,0,0,0,0,0,0,0,0,0,0,0,0,0,0,0,0,0,0,0,0,0],"id":0,"left_children":[1,3,5,7,9,11,13,15,17,19,21,23,25,27,29,31,33,35,37,39,41,43,-1,45,47,49,51,53,55,-1,57,-1,59,61,63,65,67,69,71,73,75,77,79,81,83,85,87,89,91,93,95,97,99,101,103,-1,-1,105,107,-1,-1,-1,-1,-1,-1,-1,-1,-1,-1,-1,-1,-1,-1,-1,-1,-1,-1,-1,-1,-1,-1,-1,-1,-1,-1,-1,-1,-1,-1,-1,-1,-1,-1,-1,-1,-1,-1,-1,-1,-1,-1,-1,-1,-1,-1,-1,-1,-1,-1],"loss_changes":[3.058706E2,3.9970215E1,1.0503588E2,1.6900513E1,1.2192657E1,5.3728622E1,2.4533371E1,2.9940948E0,1.8348402E1,5.444824E0,5.8929763E0,6.1037994E1,8.720638E0,2.5159204E1,1.5289955E0,6.788807E-1,4.0639496E0,8.1235695E0,1.0953588E1,2.8437195E0,5.7307625E0,1.3480969E1,0E0,3.9360214E1,2.8640968E1,3.4290295E0,1.0748508E1,8.687614E0,1.5016947E0,0E0,8.050003E-1,0E0,7.092209E-1,5.381586E0,4.342312E0,4.682209E0,1.2972972E0,1.5384805E1,5.1203566E0,3.749733E0,1.3436279E0,3.905775E0,1.9566326E0,1.967617E0,6.0643296E0,4.7508974E0,1.5350143E1,6.4252663E0,8.159879E0,3.4301748E0,1.8864288E0,3.1090982E0,3.042448E0,5.0058165E0,4.0756187E0,0E0,0E0,1.7245775E0,6.822624E-1,0E0,0E0,0E0,0E0,0E0,0E0,0E0,0E0,0E0,0E0,0E0,0E0,0E0,0E0,0E0,0E0,0E0,0E0,0E0,0E0,0E0,0E0,0E0,0E0,0E0,0E0,0E0,0E0,0E0,0E0,0E0,0E0,0E0,0E0,0E0,0E0,0E0,0E0,0E0,0E0,0E0,0E0,0E0,0E0,0E0,0E0,0E0,0E0,0E0,0E0],"parents":[2147483647,0,0,1,1,2,2,3,3,4,4,5,5,6,6,7,7,8,8,9,9,10,10,11,11,12,12,13,13,14,14,15,15,16,16,17,17,18,18,19,19,20,20,21,21,23,23,24,24,25,25,26,26,27,27,28,28,30,30,32,32,33,33,34,34,35,35,36,36,37,37,38,38,39,39,40,40,41,41,42,42,43,43,44,44,45,45,46,46,47,47,48,48,49,49,50,50,51,51,52,52,53,53,54,54,57,57,58,58],"right_children":[2,4,6,8,10,12,14,16,18,20,22,24,26,28,30,32,34,36,38,40,42,44,-1,46,48,50,52,54,56,-1,58,-1,60,62,64,66,68,70,72,74,76,78,80,82,84,86,88,90,92,94,96,98,100,102,104,-1,-1,106,108,-1,-1,-1,-1,-1,-1,-1,-1,-1,-1,-1,-1,-1,-1,-1,-1,-1,-1,-1,-1,-1,-1,-1,-1,-1,-1,-1,-1,-1,-1,-1,-1,-1,-1,-1,-1,-1,-1,-1,-1,-1,-1,-1,-1,-1,-1,-1,-1,-1,-1],"split_conditions":[9E-1,1.9428377E1,4.47E2,3.1E0,6.37479E0,3.173E0,-1.06061E0,-6.83E-1,3.8E-1,3.576E-1,7.88595E2,1.03343725E1,1.9120535E1,2.14E0,3E-2,4E-2,-5.6E-2,1.4908E0,1.9120535E1,1.799E0,5.5E0,6.4E-1,-7.1098275E-2,9E0,-1.93E1,1.47E2,4.378932E1,5.1E-1,1.6E-1,1.0344825E-2,-6.09E-1,-2.5544848E-9,9.7E-2,4.77E-4,-1.14E0,1.0215344E1,1.25844E-1,1.04126625E1,-3.36E-3,1.7E-1,2.299068E2,1.3E-2,1.59601E-1,1.389039E1,5.1E0,1.4E-1,1.266E-2,4.85805E1,1.207E0,9.4E-1,7.391051E0,6.874E2,-3E0,6.5E-1,3.022E-1,-7.1641795E-2,1.0344825E-2,3.4630682E0,8.302E-1,-7.374302E-2,-2.5544848E-9,1.6097559E-2,-4.2580653E-2,4E-2,-5.8197435E-2,4.225348E-3,-4.3390363E-2,1.1351352E-1,-2.5544848E-9,4.7899157E-2,-2.5293497E-2,-2.8301893E-2,7.854077E-2,-1.7241385E-2,-6.1720073E-2,-6.9054484E-2,-4.50512E-2,7.3846154E-2,-5.454546E-2,-3.6174644E-2,-7.200001E-2,-6.0515027E-2,-8.571433E-3,7.810651E-2,-3.4426235E-2,5.967446E-3,8.571429E-2,-1.1009179E-2,1.08513854E-1,4.1347146E-2,1.02030456E-1,-1.9346943E-2,7.113402E-2,-3.333334E-2,7.317073E-2,-3.7645043E-9,-6.237007E-2,-6.153847E-2,4.054054E-2,-2.0689659E-2,9.8230086E-2,-6.393444E-2,9.6E-2,1.119403E-1,-4.2857148E-2,2.7272725E-2,-6.2264156E-2,-2.5544848E-9,-7.1923435E-2],"split_indices":[71,33,36,28,15,80,17,84,81,21,33,33,33,80,50,19,70,21,33,6,6,19,0,36,29,41,56,81,46,0,5,0,78,13,78,33,12,33,14,71,1,78,12,15,19,46,16,56,52,79,33,9,70,80,30,0,0,32,6,0,0,0,0,0,0,0,0,0,0,0,0,0,0,0,0,0,0,0,0,0,0,0,0,0,0,0,0,0,0,0,0,0,0,0,0,0,0,0,0,0,0,0,0,0,0,0,0,0,0],"split_type":[0,0,0,0,0,0,0,0,0,0,0,0,0,0,0,0,0,0,0,0,0,0,0,0,0,0,0,0,0,0,0,0,0,0,0,0,0,0,0,0,0,0,0,0,0,0,0,0,0,0,0,0,0,0,0,0,0,0,0,0,0,0,0,0,0,0,0,0,0,0,0,0,0,0,0,0,0,0,0,0,0,0,0,0,0,0,0,0,0,0,0,0,0,0,0,0,0,0,0,0,0,0,0,0,0,0,0,0,0],"sum_hessian":[2.7062222E3,1.8515554E3,8.546666E2,6.7822217E2,1.1733333E3,6.6888885E2,1.8577777E2,2.662222E2,4.1199997E2,1.0959999E3,7.733333E1,5.706666E2,9.822221E1,5.3777775E1,1.3199998E2,6.133333E1,2.0488887E2,2.4044443E2,1.7155554E2,1.0106666E3,8.533333E1,5.9111107E1,1.8222221E1,2.9866666E2,2.7199997E2,6.933333E1,2.8888887E1,3.0222221E1,2.3555553E1,2.222222E0,1.2977777E2,1.3333333E0,5.9999996E1,7.244444E1,1.3244444E2,2.3599998E2,4.444444E0,1.4177777E2,2.9777777E1,9.2888885E1,9.177777E2,8.888888E0,7.644444E1,3.5555553E1,2.3555553E1,6.799999E1,2.3066666E2,1.2711111E2,1.4488889E2,1.1555555E1,5.7777775E1,1.5111111E1,1.3777777E1,7.5555553E0,2.2666666E1,2.1333332E1,2.222222E0,7.5555553E0,1.2222221E2,5.8666664E1,1.3333333E0,2.1777777E1,5.0666664E1,3.9999998E0,1.2844444E2,2.2666666E1,2.1333331E2,3.111111E0,1.3333333E0,3.8666664E1,1.0311111E2,4.8888884E0,2.4888887E1,2.7999998E1,6.4888885E1,8.8622217E2,3.1555553E1,6.222222E0,2.6666665E0,5.2444443E1,2.3999998E1,2.4888887E1,1.0666666E1,1.7777777E1,5.7777777E0,6.0444443E1,7.5555553E0,1.1111111E1,2.1955554E2,1.0622221E2,2.0888887E1,1.351111E2,9.777777E0,7.9999995E0,3.5555553E0,5.333333E0,5.2444443E1,1.1999999E1,3.111111E0,2.222222E0,1.1555555E1,5.7777777E0,1.7777777E0,2.1333332E1,1.3333333E0,2.6666665E0,4.8888884E0,1.3333333E0,1.20888885E2],"tree_param":{"num_deleted":"0","num_feature":"88","num_nodes":"109","size_leaf_vector":"1"}},{"base_weights":[-1.0480034E-1,-4.222033E-1,6.912205E-1,-7.695601E-2,-6.513215E-1,-5.2066123E-1,9.1291136E-1,4.970414E-1,-6.626403E-1,-5.343639E-1,-7.2771585E-1,3.0612242E-1,-5.5481416E-1,1.135182E0,-6.558705E-1,-6.52174E-1,8.314566E-1,-1.7206988E-1,-7.244733E-1,-3.3372998E-1,-6.6561395E-1,-7.290913E-1,-2.5544848E-9,-5.1724143E-2,1.0344827E-1,-5.7725954E-1,4.137931E-2,1.2845798E0,1.0762328E-1,1.9999997E-1,-7.021277E-1,-7.1641797E-1,3.8961E-2,9.782876E-1,-3.0841127E-1,-5.397924E-1,7.1900827E-1,-4.647888E-1,-7.414093E-1,-6.9099206E-1,5.5350512E-2,-1.538462E-1,-6.878351E-1,-1.2000003E-2,-7.304596E-1,-6.404495E-1,-3.417722E-1,1.309486E0,3.1199998E-1,-2.1126765E-1,9.7790056E-1,-5.1724143E-2,9.6E-2,-7.264575E-1,-2.0000003E-1,-7.28276E-2,-2.5544848E-9,8.1818186E-2,-4.5283023E-2,1.087284E-1,-3.4196895E-2,5.0442476E-2,-7.188941E-2,1.6216213E-2,-6.206897E-2,-5.454546E-2,1.0824742E-1,1.9999998E-2,-6.1016954E-2,-2.7272731E-2,-7.444873E-2,-7.1925476E-2,-3.333334E-2,-6.0207617E-2,4.1088175E-2,6.486487E-2,-4.719102E-2,2.3999998E-2,-6.948942E-2,-1.2000003E-2,-7.318348E-2,-1.9672137E-2,-6.688919E-2,-7.0588246E-2,2.9032255E-2,1.3205741E-1,-3.2432437E-2,6.666666E-2,-2.8301893E-2,3.333333E-2,-5.299685E-2,-3.2432437E-2,1.2352941E-1,-2.5544848E-9,-7.3972605E-2,-5.454546E-2,4.285714E-2],"categories":[],"categories_nodes":[],"categories_segments":[],"categories_sizes":[],"default_left":[0,0,0,0,0,0,0,0,0,0,0,0,0,0,0,0,0,0,0,0,0,0,0,0,0,0,0,0,0,0,0,0,0,0,0,0,0,0,0,0,0,0,0,0,0,0,0,0,0,0,0,0,0,0,0,0,0,0,0,0,0,0,0,0,0,0,0,0,0,0,0,0,0,0,0,0,0,0,0,0,0,0,0,0,0,0,0,0,0,0,0,0,0,0,0,0,0],"id":1,"left_children":[1,3,5,7,9,11,13,15,17,19,21,23,25,27,29,31,33,35,37,39,41,43,-1,-1,-1,45,-1,47,49,51,53,55,57,59,61,63,65,67,69,71,73,75,77,-1,79,81,83,85,87,89,91,-1,-1,93,95,-1,-1,-1,-1,-1,-1,-1,-1,-1,-1,-1,-1,-1,-1,-1,-1,-1,-1,-1,-1,-1,-1,-1,-1,-1,-1,-1,-1,-1,-1,-1,-1,-1,-1,-1,-1,-1,-1,-1,-1,-1,-1],"loss_changes":[6.8979926E2,1.5433145E2,2.0958472E2,2.6243866E2,1.0091705E1,3.5865326E0,2.3030151E2,1.5209047E2,1.1594147E1,1.2081329E1,7.07428E-1,3.8001409E0,2.772869E0,8.843982E1,3.4000206E0,3.9993591E0,5.1497726E1,1.4987614E1,1.1629486E0,2.6001055E1,3.09478E0,5.003052E-1,0E0,0E0,0E0,1.482441E0,0E0,1.1791992E1,2.0835844E1,3.222069E0,8.1167984E-1,6.9566727E-1,3.6491058E0,3.940158E1,1.2262996E1,1.9241209E0,6.769363E0,2.409358E0,2.587433E-1,7.452469E-1,2.136151E1,3.6242847E0,1.9315643E0,0E0,5.029297E-1,9.916611E-1,6.2656064E0,9.319092E0,3.1196978E0,9.76129E0,7.1415653E0,0E0,0E0,7.1650696E-1,1.3194805E0,0E0,0E0,0E0,0E0,0E0,0E0,0E0,0E0,0E0,0E0,0E0,0E0,0E0,0E0,0E0,0E0,0E0,0E0,0E0,0E0,0E0,0E0,0E0,0E0,0E0,0E0,0E0,0E0,0E0,0E0,0E0,0E0,0E0,0E0,0E0,0E0,0E0,0E0,0E0,0E0,0E0,0E0],"parents":[2147483647,0,0,1,1,2,2,3,3,4,4,5,5,6,6,7,7,8,8,9,9,10,10,11,11,12,12,13,13,14,14,15,15,16,16,17,17,18,18,19,19,20,20,21,21,25,25,27,27,28,28,29,29,30,30,31,31,32,32,33,33,34,34,35,35,36,36,37,37,38,38,39,39,40,40,41,41,42,42,44,44,45,45,46,46,47,47,48,48,49,49,50,50,53,53,54,54],"right_children":[2,4,6,8,10,12,14,16,18,20,22,24,26,28,30,32,34,36,38,40,42,44,-1,-1,-1,46,-1,48,50,52,54,56,58,60,62,64,66,68,70,72,74,76,78,-1,80,82,84,86,88,90,92,-1,-1,94,96,-1,-1,-1,-1,-1,-1,-1,-1,-1,-1,-1,-1,-1,-1,-1,-1,-1,-1,-1,-1,-1,-1,-1,-1,-1,-1,-1,-1,-1,-1,-1,-1,-1,-1,-1,-1,-1,-1,-1,-1,-1,-1],"split_conditions":[-1.5E-1,6.1E-1,1.04126625E1,6.4E0,1.3E0,2.1E-1,1.344E1,1.08141775E1,1.244E1,5.5897503E0,4.6E-1,9.322174E0,-1.6E-2,1.12E0,1.21E-4,1.0215344E1,2.92E-1,2.432E2,-4.6E-1,1.0716698E1,2.15E-4,1.3148486E2,-2.5544848E-9,-5.1724143E-2,1.0344827E-1,3.20543E0,4.137931E-2,1.773E2,2E0,3.83E-3,2E0,1.51E2,4.8E-2,1.92634E3,8.1E1,3.889451E1,2.9497E-1,5.2265162E0,8.9E-1,1.04126625E1,4.91E0,-1.8342E-1,4.2E-2,-1.2000003E-2,-1.71E3,2.8329706E2,4.03E-1,2.113E3,-9.3976E-1,3.2E-1,-1.7636E2,-5.1724143E-2,9.6E-2,1.404E1,1.157E0,-7.28276E-2,-2.5544848E-9,8.1818186E-2,-4.5283023E-2,1.087284E-1,-3.4196895E-2,5.0442476E-2,-7.188941E-2,1.6216213E-2,-6.206897E-2,-5.454546E-2,1.0824742E-1,1.9999998E-2,-6.1016954E-2,-2.7272731E-2,-7.444873E-2,-7.1925476E-2,-3.333334E-2,-6.0207617E-2,4.1088175E-2,6.486487E-2,-4.719102E-2,2.3999998E-2,-6.948942E-2,-1.2000003E-2,-7.318348E-2,-1.9672137E-2,-6.688919E-2,-7.0588246E-2,2.9032255E-2,1.3205741E-1,-3.2432437E-2,6.666666E-2,-2.8301893E-2,3.333333E-2,-5.299685E-2,-3.2432437E-2,1.2352941E-1,-2.5544848E-9,-7.3972605E-2,-5.454546E-2,4.285714E-2],"split_indices":[48,80,33,18,86,80,18,33,18,32,46,33,45,80,13,33,7,34,5,33,13,1,0,0,0,15,0,27,37,16,37,10,44,25,36,56,15,32,19,33,27,17,53,0,11,55,3,23,17,69,26,0,0,18,3,0,0,0,0,0,0,0,0,0,0,0,0,0,0,0,0,0,0,0,0,0,0,0,0,0,0,0,0,0,0,0,0,0,0,0,0,0,0,0,0,0,0],"split_type":[0,0,0,0,0,0,0,0,0,0,0,0,0,0,0,0,0,0,0,0,0,0,0,0,0,0,0,0,0,0,0,0,0,0,0,0,0,0,0,0,0,0,0,0,0,0,0,0,0,0,0,0,0,0,0,0,0,0,0,0,0,0,0,0,0,0,0,0,0,0,0,0,0,0,0,0,0,0,0,0,0,0,0,0,0,0,0,0,0,0,0,0,0,0,0,0,0],"sum_hessian":[2.7279998E3,1.9506665E3,7.773333E2,7.786666E2,1.1719999E3,1.1999999E2,6.573333E2,3.933333E2,3.853333E2,4.662222E2,7.057777E2,4.444444E0,1.1555555E2,5.7599994E2,8.133333E1,8.844444E1,3.048889E2,4.3555553E1,3.4177777E2,1.8577777E2,2.8044443E2,7.044444E2,1.3333333E0,2.222222E0,2.222222E0,1.1333333E2,2.222222E0,5.0266663E2,7.333333E1,3.9999998E0,7.733333E1,8.0888885E1,7.5555553E0,2.702222E2,3.4666664E1,3.1111109E1,1.2444444E1,2.2666666E1,3.1911108E2,9.6444435E1,8.933333E1,1.1999999E1,2.6844443E2,1.7777777E0,7.026666E2,8.799999E1,2.5333332E1,4.8977774E2,1.2888888E1,5.4222218E1,1.911111E1,2.222222E0,1.7777777E0,7.333333E1,3.9999998E0,7.955555E1,1.3333333E0,2.6666665E0,4.8888884E0,2.4977776E2,2.0444443E1,1.1555555E1,2.311111E1,3.111111E0,2.7999998E1,2.6666665E0,9.777777E0,3.9999998E0,1.8666666E1,2.6666665E0,3.1644443E2,8.844444E1,7.9999995E0,3.1111109E1,5.8222218E1,3.111111E0,8.888888E0,1.7777777E0,2.6666666E2,1.7777777E0,7.0088885E2,5.7777777E0,8.222221E1,1.5999999E1,9.333333E0,4.8666663E2,3.111111E0,7.9999995E0,4.8888884E0,1.9999998E1,3.422222E1,3.111111E0,1.5999999E1,1.3333333E0,7.199999E1,2.6666665E0,1.3333333E0],"tree_param":{"num_deleted":"0","num_feature":"88","num_nodes":"97","size_leaf_vector":"1"}},{"base_weights":[3.8533118E-1,9.9510305E-2,1.3686786E0,-2.1049349E-1,1.0718485E0,1.433623E0,7.902946E-1,7.8260824E-2,-6.400829E-1,1.2974504E0,5.6210524E-1,1.4387319E0,4.0540537E-1,-1.7142862E-1,9.85447E-1,1.0372185E0,-5.0440084E-2,4.576271E-1,-6.736001E-1,4.8803824E-1,1.3503526E0,1.373494E0,3.8734174E-1,2.3999998E-2,1.4422019E0,8.571428E-2,-1.2000003E-2,-4.7191018E-1,9.6E-2,1.2786885E0,4.5405403E-1,1.2584269E0,2.2270739E-1,-2.5103927E-1,4.810914E-1,-4.7368425E-1,8.372093E-1,6.233766E-1,-6.9048053E-1,9.416058E-1,-3.3333337E-1,5.581395E-1,1.3818691E0,1.4050633E0,4.285714E-2,-2.4905665E-1,5.6512374E-1,1.44565E0,4.137931E-2,-6.461539E-2,-3.2511625E-8,5.454545E-1,1.3238434E0,1.1294117E0,-1.1009179E-1,6.6206895E-2,1.3714287E-1,4.8066296E-2,-6.31579E-2,9.815074E-3,-4.6489958E-2,5.9806556E-2,-4.5569625E-2,-2.5544848E-9,-6.0000002E-2,1.578947E-2,1.2222222E-1,1.24528304E-1,-5.454546E-2,-7.027915E-2,1.7647056E-2,1.3483147E-1,1.578947E-2,-6.52174E-2,8.571428E-2,-6.0000002E-2,1.0645161E-1,1.08E-1,1.4442547E-1,4.285714E-2,1.44E-1,2.2018345E-2,-5.4545462E-2,7.665996E-2,3.265306E-2,1.447363E-1,4.285714E-2,4.285714E-2,-4.2857148E-2,8.571428E-2,-2.5544848E-9,1.4050633E-1,7.358491E-2,2.3999998E-2,1.304348E-1,9.6E-2,-3.870968E-2],"categories":[],"categories_nodes":[],"categories_segments":[],"categories_sizes":[],"default_left":[0,0,0,0,0,0,0,0,0,0,0,0,0,0,0,0,0,0,0,0,0,0,0,0,0,0,0,0,0,0,0,0,0,0,0,0,0,0,0,0,0,0,0,0,0,0,0,0,0,0,0,0,0,0,0,0,0,0,0,0,0,0,0,0,0,0,0,0,0,0,0,0,0,0,0,0,0,0,0,0,0,0,0,0,0,0,0,0,0,0,0,0,0,0,0,0,0],"id":2,"left_children":[1,3,5,7,9,11,13,15,17,19,21,23,25,27,29,31,33,35,37,39,41,43,45,-1,47,-1,-1,49,-1,51,53,55,57,59,61,63,65,67,69,71,73,75,77,79,-1,81,83,85,-1,-1,87,89,91,93,95,-1,-1,-1,-1,-1,-1,-1,-1,-1,-1,-1,-1,-1,-1,-1,-1,-1,-1,-1,-1,-1,-1,-1,-1,-1,-1,-1,-1,-1,-1,-1,-1,-1,-1,-1,-1,-1,-1,-1,-1,-1,-1],"loss_changes":[7.650062E2,6.363403E2,2.1892944E1,1.9864743E2,5.7958496E1,2.3052979E0,1.2201469E1,1.1832858E2,2.3990143E1,1.445636E1,2.1919838E1,1.9283447E0,1.07861E0,4.4193897E0,7.7474747E0,2.0159798E1,9.0313484E1,7.348922E0,1.4113892E1,8.96525E0,7.487488E0,2.231369E-1,1.5037539E1,0E0,1.3342285E0,0E0,0E0,8.131373E-1,0E0,3.9992905E-1,7.9560103E0,5.089676E0,5.9107156E0,4.595593E1,2.5707249E1,3.7894738E-1,3.5558262E0,6.8983097E0,6.7140503E0,4.6390724E0,3.9751556E0,9.044561E0,4.418396E0,2.8123093E-1,0E0,4.2152863E0,4.711651E0,3.2556152E-1,0E0,0E0,8.5714287E-1,6.233767E-1,4.5716095E-1,1.1564188E0,3.961598E0,0E0,0E0,0E0,0E0,0E0,0E0,0E0,0E0,0E0,0E0,0E0,0E0,0E0,0E0,0E0,0E0,0E0,0E0,0E0,0E0,0E0,0E0,0E0,0E0,0E0,0E0,0E0,0E0,0E0,0E0,0E0,0E0,0E0,0E0,0E0,0E0,0E0,0E0,0E0,0E0,0E0,0E0],"parents":[2147483647,0,0,1,1,2,2,3,3,4,4,5,5,6,6,7,7,8,8,9,9,10,10,11,11,12,12,13,13,14,14,15,15,16,16,17,17,18,18,19,19,20,20,21,21,22,22,24,24,27,27,29,29,30,30,31,31,32,32,33,33,34,34,35,35,36,36,37,37,38,38,39,39,40,40,41,41,42,42,43,43,45,45,46,46,47,47,50,50,51,51,52,52,53,53,54,54],"right_children":[2,4,6,8,10,12,14,16,18,20,22,24,26,28,30,32,34,36,38,40,42,44,46,-1,48,-1,-1,50,-1,52,54,56,58,60,62,64,66,68,70,72,74,76,78,80,-1,82,84,86,-1,-1,88,90,92,94,96,-1,-1,-1,-1,-1,-1,-1,-1,-1,-1,-1,-1,-1,-1,-1,-1,-1,-1,-1,-1,-1,-1,-1,-1,-1,-1,-1,-1,-1,-1,-1,-1,-1,-1,-1,-1,-1,-1,-1,-1,-1,-1],"split_conditions":[1.25844E-1,1.83E0,8E-3,-1.62E-1,7E-3,4.84E0,6.4E-2,4.14E0,3.4653E0,1.75E0,6.22E0,2.5E-2,6.792E0,3.36264E-1,5.69486E0,6.1442E-1,9.335973E1,1.14E-1,3.211E0,-2.4E-1,1.1451E1,5.301798E0,1.4090106E2,2.3999998E-2,2.1E0,8.571428E-2,-1.2000003E-2,-5.613E-2,9.6E-2,1.1973E1,1.7E-1,2.6E-1,-2.8629E2,7E-3,4.8123535E1,5.667895E-1,-8.76E-4,1.451E-1,9.89E-1,1.4405857E1,2.06E0,8.65E-2,2.896E0,-1.318875E4,4.285714E-2,3.8E0,4.437476E1,5.712809E2,4.137931E-2,-6.461539E-2,2.3E-1,8.717E2,6.9E-1,2.25166E-1,-1.87E2,6.6206895E-2,1.3714287E-1,4.8066296E-2,-6.31579E-2,9.815074E-3,-4.6489958E-2,5.9806556E-2,-4.5569625E-2,-2.5544848E-9,-6.0000002E-2,1.578947E-2,1.2222222E-1,1.24528304E-1,-5.454546E-2,-7.027915E-2,1.7647056E-2,1.3483147E-1,1.578947E-2,-6.52174E-2,8.571428E-2,-6.0000002E-2,1.0645161E-1,1.08E-1,1.4442547E-1,4.285714E-2,1.44E-1,2.2018345E-2,-5.4545462E-2,7.665996E-2,3.265306E-2,1.447363E-1,4.285714E-2,4.285714E-2,-4.2857148E-2,8.571428E-2,-2.5544848E-9,1.4050633E-1,7.358491E-2,2.3999998E-2,1.304348E-1,9.6E-2,-3.870968E-2],"split_indices":[12,86,65,48,65,43,53,27,27,80,27,53,4,12,16,16,0,7,43,48,58,0,1,0,83,0,0,17,0,60,87,81,26,65,67,0,14,30,7,0,82,7,86,26,0,28,56,0,0,0,7,9,71,12,11,0,0,0,0,0,0,0,0,0,0,0,0,0,0,0,0,0,0,0,0,0,0,0,0,0,0,0,0,0,0,0,0,0,0,0,0,0,0,0,0,0,0],"split_type":[0,0,0,0,0,0,0,0,0,0,0,0,0,0,0,0,0,0,0,0,0,0,0,0,0,0,0,0,0,0,0,0,0,0,0,0,0,0,0,0,0,0,0,0,0,0,0,0,0,0,0,0,0,0,0,0,0,0,0,0,0,0,0,0,0,0,0,0,0,0,0,0,0,0,0,0,0,0,0,0,0,0,0,0,0,0,0,0,0,0,0,0,0,0,0,0,0],"sum_hessian":[2.7213333E3,2.1093333E3,6.1199994E2,1.5999999E3,5.093333E2,5.4888885E2,6.3111107E1,9.5733325E2,6.426666E2,3.5199997E2,1.5733333E2,5.457778E2,3.111111E0,1.0666666E1,5.2444443E1,1.12444435E2,8.4488885E2,1.8666666E1,6.2399994E2,2.2222221E1,3.2977777E2,2.6666664E1,1.3066666E2,1.7777777E0,5.4399994E2,1.3333333E0,1.7777777E0,8.888888E0,1.7777777E0,3.2888885E1,1.9555553E1,8.799999E1,2.4444443E1,6.137778E2,2.311111E2,5.333333E0,1.3333332E1,7.5555553E0,6.164444E2,1.4222221E1,7.9999995E0,1.3333332E1,3.1644443E2,2.5333332E1,1.3333333E0,2.8444443E1,1.0222221E2,5.417778E2,2.222222E0,6.222222E0,2.6666665E0,2.6666665E0,3.0222221E1,8.444444E0,1.1111111E1,1.5111111E1,7.2888885E1,1.911111E1,5.333333E0,2.3333331E2,3.8044443E2,2.0577777E2,2.5333332E1,1.3333333E0,3.9999998E0,5.333333E0,7.9999995E0,4.8888884E0,2.6666665E0,6.0799994E2,8.444444E0,8.888888E0,5.333333E0,6.666666E0,1.3333333E0,3.9999998E0,9.333333E0,5.733333E1,2.5911108E2,1.3333333E0,2.3999998E1,1.1111111E1,1.7333332E1,5.4222218E1,4.7999996E1,5.404444E2,1.3333333E0,1.3333333E0,1.3333333E0,1.3333333E0,1.3333333E0,2.5333332E1,4.8888884E0,1.7777777E0,6.666666E0,1.7777777E0,9.333333E0],"tree_param":{"num_deleted":"0","num_feature":"88","num_nodes":"97","size_leaf_vector":"1"}},{"base_weights":[-2.6876834E-1,3.0119282E-1,-4.9989104E-1,-2.381085E-1,4.6160698E-1,-5.652519E-1,-2.1718492E-1,-4.1248533E-1,1.15286365E-1,-3.445965E-1,5.7305276E-1,-2.7677393E-1,-5.945508E-1,7.9202764E-2,-4.2403483E-1,-5.121297E-1,1.7757272E-2,-8.672927E-2,4.7062752E-1,2.7376887E-1,-5.2540547E-1,-1.21944875E-1,6.356087E-1,-5.577367E-1,-1.2372368E-1,-4.387292E-1,-6.2252206E-1,-1.6301414E-1,2.9248145E-1,-5.115573E-1,-4.120494E-3,5.76835E-1,-5.483972E-1,5.828967E-1,-3.0707914E-1,5.8586407E-1,-2.9507226E-1,7.733574E-1,-2.3836827E-1,-4.920685E-1,7.046046E-1,1.1419915E-2,-6.4825684E-1,-2.3312794E-1,7.887309E-1,7.424723E-1,2.8703368E-1,4.2977683E-2,-6.113692E-1,-2.309659E-1,4.9805993E-1,-4.6385098E-1,4.6583664E-1,-5.8301336E-1,-7.1393347E-1,-2.638426E-1,8.041802E-1,1.0343162E0,1.7725137E-1,-2.557704E-2,-5.449346E-1,3.977835E-1,-6.790425E-2,9.042449E-2,5.9737934E-4,-5.7697833E-2,6.0061593E-2,-1.8121295E-2,1.2246909E-1,1.3816873E-2,-6.5541096E-2,-5.2053846E-2,9.968582E-2,-5.1475745E-2,5.442351E-2,9.821107E-2,6.3230298E-3,3.982672E-2,-6.0323905E-2,-6.1576057E-2,1.314469E-3,8.9743294E-2,-4.3010708E-2,-4.870764E-2,6.4967506E-2,-1.20968595E-2,-6.8816535E-2,-6.7108415E-2,-3.925162E-3,1.0852118E-1,-1.1277037E-3,9.12246E-2,3.3563532E-2,4.23675E-2,-3.3798598E-2,1.2363306E-2,-6.487126E-2,-3.2723054E-2,4.3026567E-2,8.1488326E-2,-3.6160495E-2,1.2041023E-2,-4.909503E-2,-4.7441915E-2,9.2976145E-2,6.423646E-2,-5.8632042E-2,-8.840216E-3,-7.1672514E-2,6.0251962E-2,-3.312264E-2,-1.6318295E-3,1.0091529E-1,3.3503654E-4,1.18390046E-1,7.030091E-2,7.958367E-3,6.1622955E-2,-4.0391397E-2,-5.699733E-2,1.775194E-2,8.762347E-2,5.554373E-4],"categories":[],"categories_nodes":[],"categories_segments":[],"categories_sizes":[],"default_left":[0,0,0,0,0,0,0,0,0,0,0,0,0,0,0,0,0,0,0,0,0,0,0,0,0,0,0,0,0,0,0,0,0,0,0,0,0,0,0,0,0,0,0,0,0,0,0,0,0,0,0,0,0,0,0,0,0,0,0,0,0,0,0,0,0,0,0,0,0,0,0,0,0,0,0,0,0,0,0,0,0,0,0,0,0,0,0,0,0,0,0,0,0,0,0,0,0,0,0,0,0,0,0,0,0,0,0,0,0,0,0,0,0,0,0,0,0,0,0,0,0,0,0],"id":3,"left_children":[1,3,5,7,9,11,13,15,17,19,21,23,25,27,29,31,33,35,37,39,41,43,45,47,49,51,53,55,57,59,61,63,65,67,69,71,73,75,77,79,81,83,85,87,89,91,93,-1,95,97,99,101,103,105,107,109,111,113,115,117,119,121,-1,-1,-1,-1,-1,-1,-1,-1,-1,-1,-1,-1,-1,-1,-1,-1,-1,-1,-1,-1,-1,-1,-1,-1,-1,-1,-1,-1,-1,-1,-1,-1,-1,-1,-1,-1,-1,-1,-1,-1,-1,-1,-1,-1,-1,-1,-1,-1,-1,-1,-1,-1,-1,-1,-1,-1,-1,-1,-1,-1,-1],"loss_changes":[3.523498E2,6.6896706E1,3.5033813E1,1.099474E1,5.3688744E1,1.2891571E1,2.2037176E1,5.1180305E0,4.310262E0,8.297667E0,2.2834045E1,6.135845E0,5.8350525E0,7.712212E0,7.772316E0,4.139084E0,4.470327E0,5.604744E0,4.844658E0,6.0076966E0,3.7514553E0,4.6451783E0,1.7680405E1,2.9426022E0,6.429455E0,5.1397324E0,3.866211E0,7.0495586E0,6.591408E0,2.8254013E0,1.0440523E1,6.687883E-1,3.4396229E0,4.5753117E0,2.4943428E0,4.839921E0,5.8596973E0,2.2284508E0,1.9269831E0,4.3089676E-1,2.878449E0,3.99293E0,8.8929176E-1,3.3733656E0,1.203448E0,2.5044067E1,9.908413E0,0E0,1.4088001E0,5.3252544E0,4.1749563E0,3.4048958E0,3.2126348E0,3.7537842E0,5.537262E-1,3.9501734E0,1.1712046E0,1.6073828E0,3.5285115E0,3.2352657E0,3.0632248E0,4.52357E0,0E0,0E0,0E0,0E0,0E0,0E0,0E0,0E0,0E0,0E0,0E0,0E0,0E0,0E0,0E0,0E0,0E0,0E0,0E0,0E0,0E0,0E0,0E0,0E0,0E0,0E0,0E0,0E0,0E0,0E0,0E0,0E0,0E0,0E0,0E0,0E0,0E0,0E0,0E0,0E0,0E0,0E0,0E0,0E0,0E0,0E0,0E0,0E0,0E0,0E0,0E0,0E0,0E0,0E0,0E0,0E0,0E0,0E0,0E0,0E0,0E0],"parents":[2147483647,0,0,1,1,2,2,3,3,4,4,5,5,6,6,7,7,8,8,9,9,10,10,11,11,12,12,13,13,14,14,15,15,16,16,17,17,18,18,19,19,20,20,21,21,22,22,23,23,24,24,25,25,26,26,27,27,28,28,29,29,30,30,31,31,32,32,33,33,34,34,35,35,36,36,37,37,38,38,39,39,40,40,41,41,42,42,43,43,44,44,45,45,46,46,48,48,49,49,50,50,51,51,52,52,53,53,54,54,55,55,56,56,57,57,58,58,59,59,60,60,61,61],"right_children":[2,4,6,8,10,12,14,16,18,20,22,24,26,28,30,32,34,36,38,40,42,44,46,48,50,52,54,56,58,60,62,64,66,68,70,72,74,76,78,80,82,84,86,88,90,92,94,-1,96,98,100,102,104,106,108,110,112,114,116,118,120,122,-1,-1,-1,-1,-1,-1,-1,-1,-1,-1,-1,-1,-1,-1,-1,-1,-1,-1,-1,-1,-1,-1,-1,-1,-1,-1,-1,-1,-1,-1,-1,-1,-1,-1,-1,-1,-1,-1,-1,-1,-1,-1,-1,-1,-1,-1,-1,-1,-1,-1,-1,-1,-1,-1,-1,-1,-1,-1,-1,-1,-1],"split_conditions":[1.33E1,2.7E-1,4.1808502E1,7E-3,5.16E0,1.59E1,6.6082516E0,2E0,3.5E-1,3.65E2,-1.936E0,1E-3,1.8432E0,3.6E-1,1.773E2,1.6E-1,9.47E-2,-2.14E2,1.69E2,-7.3E-1,1.7215E0,1.5574E1,1.9152802E2,1.065E1,8.2E-1,4.83E1,2.859E1,4.8591275E2,4.2E-2,7.7E1,2.774E1,3.50618E0,1.1654E0,2.57E-1,8.1E0,-2.79E2,2.9487E-2,6.014E3,-6E-4,4.463508E0,1.05E0,1.3E0,1.5E-1,-3.1E0,2.17E0,1.04126625E1,6.211155E0,4.2977683E-2,2.5E-1,3.8E-4,-5E-2,7.466E-1,1.3E2,1E18,1.1E16,4.4E-1,5.307E3,-1.4E-3,4.696267E0,1E1,1.5491E1,1.4E-1,-6.790425E-2,9.042449E-2,5.9737934E-4,-5.7697833E-2,6.0061593E-2,-1.8121295E-2,1.2246909E-1,1.3816873E-2,-6.5541096E-2,-5.2053846E-2,9.968582E-2,-5.1475745E-2,5.442351E-2,9.821107E-2,6.3230298E-3,3.982672E-2,-6.0323905E-2,-6.1576057E-2,1.314469E-3,8.9743294E-2,-4.3010708E-2,-4.870764E-2,6.4967506E-2,-1.20968595E-2,-6.8816535E-2,-6.7108415E-2,-3.925162E-3,1.0852118E-1,-1.1277037E-3,9.12246E-2,3.3563532E-2,4.23675E-2,-3.3798598E-2,1.2363306E-2,-6.487126E-2,-3.2723054E-2,4.3026567E-2,8.1488326E-2,-3.6160495E-2,1.2041023E-2,-4.909503E-2,-4.7441915E-2,9.2976145E-2,6.423646E-2,-5.8632042E-2,-8.840216E-3,-7.1672514E-2,6.0251962E-2,-3.312264E-2,-1.6318295E-3,1.0091529E-1,3.3503654E-4,1.18390046E-1,7.030091E-2,7.958367E-3,6.1622955E-2,-4.0391397E-2,-5.699733E-2,1.775194E-2,8.762347E-2,5.554373E-4],"split_indices":[34,77,0,65,27,34,32,35,85,36,84,65,6,85,27,69,21,42,41,84,6,6,0,25,77,27,18,0,44,41,18,15,21,4,34,42,12,40,72,32,76,71,47,70,18,33,32,0,71,75,54,6,41,38,38,71,40,74,32,36,61,85,0,0,0,0,0,0,0,0,0,0,0,0,0,0,0,0,0,0,0,0,0,0,0,0,0,0,0,0,0,0,0,0,0,0,0,0,0,0,0,0,0,0,0,0,0,0,0,0,0,0,0,0,0,0,0,0,0,0,0,0,0],"split_type":[0,0,0,0,0,0,0,0,0,0,0,0,0,0,0,0,0,0,0,0,0,0,0,0,0,0,0,0,0,0,0,0,0,0,0,0,0,0,0,0,0,0,0,0,0,0,0,0,0,0,0,0,0,0,0,0,0,0,0,0,0,0,0,0,0,0,0,0,0,0,0,0,0,0,0,0,0,0,0,0,0,0,0,0,0,0,0,0,0,0,0,0,0,0,0,0,0,0,0,0,0,0,0,0,0,0,0,0,0,0,0,0,0,0,0,0,0,0,0,0,0,0,0],"sum_hessian":[2.6726257E3,7.709984E2,1.9016273E3,1.7664519E2,5.943532E2,1.5437235E3,3.5790378E2,1.181693E2,5.8475883E1,7.192836E1,5.2242487E2,1.4329404E2,1.4004294E3,1.4736581E2,2.1053796E2,9.579322E1,2.2376081E1,3.776306E1,2.071282E1,1.6157087E1,5.577127E1,4.306151E1,4.7936337E2,4.959874E1,9.369529E1,2.1566919E2,1.1847603E3,6.911208E1,7.825372E1,1.740439E2,3.6494076E1,2.6071143E0,9.3186104E1,7.877186E0,1.4498895E1,8.502485E0,2.9260578E1,1.4451488E1,6.261333E0,5.7658334E0,1.0391253E1,1.0555185E1,4.5216084E1,3.9039265E1,4.0222406E0,3.6602124E2,1.1334214E2,2.1936977E0,4.7405045E1,8.044847E1,1.3246819E1,2.1031548E2,5.353708E0,8.3237805E2,3.5238226E2,6.3246E1,5.8660865E0,9.448639E0,6.8805084E1,1.129871E1,1.6274518E2,2.3130749E1,1.3363325E1,1.2857105E0,1.3214039E0,9.141017E1,1.775934E0,3.923535E0,3.9536507E0,6.6289363E0,7.8699584E0,2.2307465E0,6.2717385E0,2.3497019E1,5.7635584E0,1.0872371E1,3.579117E0,2.2477953E0,4.0135374E0,4.4560413E0,1.309792E0,9.060636E0,1.3306186E0,6.0594425E0,4.495743E0,3.4650838E0,4.1751E1,1.1223832E1,2.7815434E1,2.674556E0,1.3476844E0,2.5737564E2,1.08645584E2,9.327302E1,2.0069126E1,2.1803374E0,4.5224705E1,7.066579E1,9.782681E0,9.717569E0,3.5292485E0,9.16988E0,2.011456E2,1.7613287E0,3.592379E0,1.7202634E0,8.306578E2,1.7107688E0,3.506715E2,3.9910417E0,5.9254955E1,1.3564905E0,4.5095963E0,1.326756E0,8.121882E0,9.80822E0,5.8996864E1,3.9571164E0,7.3415933E0,1.574977E2,5.2474856E0,9.864181E0,1.3266569E1],"tree_param":{"num_deleted":"0","num_feature":"88","num_nodes":"123","size_leaf_vector":"1"}},{"base_weights":[-8.549014E-2,-3.9465988E-1,6.267083E-1,-6.834507E-2,-6.2579644E-1,-4.979273E-1,8.1496143E-1,4.8182118E-1,-6.2707084E-1,-6.428989E-1,-6.4605094E-2,-6.144677E-1,-2.0482971E-1,9.845543E-1,-7.0070124E-1,-4.2671412E-1,8.060087E-1,-2.0498745E-1,-7.031135E-1,-5.2502424E-1,-6.9811213E-1,3.9564157E-1,-3.9762712E-1,-6.479083E-1,4.377751E-2,3.872966E-1,-4.0710118E-1,1.0765027E0,-1.8089825E-1,2.0515183E-3,-7.144114E-2,-6.8759036E-1,8.3832234E-2,9.3289346E-1,-2.4946468E-1,-4.920612E-1,3.3635253E-1,-7.147415E-1,-2.8350708E-1,-3.0130854E-1,-6.666958E-1,1.1340168E-3,-6.994147E-1,-3.7899226E-1,1.1249045E-1,-6.728258E-2,3.055723E-2,-4.7301352E-1,-7.013017E-1,-3.8614312E-1,1.0099568E-1,6.1572142E-2,-5.041033E-1,8.3589065E-1,1.2370287E0,7.507358E-1,-4.5343384E-1,-8.475706E-3,-7.0153214E-2,-4.834177E-2,4.1839913E-2,9.914144E-2,-4.1604824E-2,6.1371066E-2,-6.939336E-2,-6.4167745E-2,-8.116887E-3,9.22504E-2,-4.659434E-2,-7.178609E-2,3.5507747E-3,-6.377188E-2,7.071203E-2,-6.987028E-2,6.9549815E-3,-4.2882983E-2,-7.206301E-2,-7.007003E-2,-1.0752614E-2,4.572149E-2,-6.1403986E-2,6.761124E-2,-4.299587E-2,-6.842695E-2,3.2488552E-3,-9.883841E-3,-7.17379E-2,-5.3608507E-2,1.7433569E-3,-6.0776103E-2,1.7260225E-2,9.466078E-2,7.655737E-3,3.9724525E-2,1.2538652E-1,-4.812952E-2,1.039744E-1,-6.4326346E-2,1.9923659E-2],"categories":[],"categories_nodes":[],"categories_segments":[],"categories_sizes":[],"default_left":[0,0,0,0,0,0,0,0,0,0,0,0,0,0,0,0,0,0,0,0,0,0,0,0,0,0,0,0,0,0,0,0,0,0,0,0,0,0,0,0,0,0,0,0,0,0,0,0,0,0,0,0,0,0,0,0,0,0,0,0,0,0,0,0,0,0,0,0,0,0,0,0,0,0,0,0,0,0,0,0,0,0,0,0,0,0,0,0,0,0,0,0,0,0,0,0,0,0,0],"id":4,"left_children":[1,3,5,7,9,11,13,15,17,19,21,23,25,27,29,31,33,35,37,39,41,43,45,47,-1,49,51,53,55,-1,-1,57,59,61,63,65,67,69,71,73,75,-1,77,79,-1,-1,81,83,85,87,-1,-1,89,91,93,95,97,-1,-1,-1,-1,-1,-1,-1,-1,-1,-1,-1,-1,-1,-1,-1,-1,-1,-1,-1,-1,-1,-1,-1,-1,-1,-1,-1,-1,-1,-1,-1,-1,-1,-1,-1,-1,-1,-1,-1,-1,-1,-1],"loss_changes":[5.9503436E2,1.4206866E2,1.7360156E2,2.4079463E2,1.054306E1,3.9020348E0,1.809137E2,1.16617E2,1.2328415E1,6.597931E0,5.3266745E0,3.2349186E0,4.3553734E0,6.781299E1,7.180977E-1,1.3972157E1,3.9244003E1,9.603802E0,1.401947E0,1.0745705E1,6.7852783E-1,8.707948E0,2.3851235E0,4.3113708E-1,0E0,4.934496E0,2.950673E0,2.1561157E1,1.2273373E1,0E0,0E0,5.225563E-1,7.076407E0,2.095665E1,1.2721764E1,2.4127073E0,1.0606552E1,7.7282715E-1,4.1441145E0,2.0053482E1,2.3933258E0,0E0,4.758911E-1,1.8250029E0,0E0,0E0,2.9091034E0,2.390706E0,5.152302E-1,3.078009E-1,0E0,0E0,1.8484559E0,1.9868027E1,4.433777E0,4.4219537E0,4.7104073E0,0E0,0E0,0E0,0E0,0E0,0E0,0E0,0E0,0E0,0E0,0E0,0E0,0E0,0E0,0E0,0E0,0E0,0E0,0E0,0E0,0E0,0E0,0E0,0E0,0E0,0E0,0E0,0E0,0E0,0E0,0E0,0E0,0E0,0E0,0E0,0E0,0E0,0E0,0E0,0E0,0E0,0E0],"parents":[2147483647,0,0,1,1,2,2,3,3,4,4,5,5,6,6,7,7,8,8,9,9,10,10,11,11,12,12,13,13,14,14,15,15,16,16,17,17,18,18,19,19,20,20,21,21,22,22,23,23,25,25,26,26,27,27,28,28,31,31,32,32,33,33,34,34,35,35,36,36,37,37,38,38,39,39,40,40,42,42,43,43,46,46,47,47,48,48,49,49,52,52,53,53,54,54,55,55,56,56],"right_children":[2,4,6,8,10,12,14,16,18,20,22,24,26,28,30,32,34,36,38,40,42,44,46,48,-1,50,52,54,56,-1,-1,58,60,62,64,66,68,70,72,74,76,-1,78,80,-1,-1,82,84,86,88,-1,-1,90,92,94,96,98,-1,-1,-1,-1,-1,-1,-1,-1,-1,-1,-1,-1,-1,-1,-1,-1,-1,-1,-1,-1,-1,-1,-1,-1,-1,-1,-1,-1,-1,-1,-1,-1,-1,-1,-1,-1,-1,-1,-1,-1,-1,-1],"split_conditions":[-1.7E-1,5.83E-1,1.0505587E1,6.4E0,3E0,1.22E1,1.763E1,1.2293265E1,1.472E1,1.1E0,5.540941E0,1.5956E1,1.01E-1,1.669E0,9E-4,1.0215344E1,3.07E-1,2.432E2,6.9E-1,5.0952E0,-6.5E-1,9.516392E0,1.384E1,-8.9E1,4.377751E-2,6E-2,1.23E1,2E0,1.1038E1,2.0515183E-3,-7.144114E-2,2.9E-2,4.1095E-1,4.60171E3,8.1E1,3.9684162E1,6.46E-1,5.1504993E1,7.2E-2,1.04126625E1,7.9E1,1.1340168E-3,1.156E3,1.2E0,1.1249045E-1,-6.728258E-2,1.5229E1,1.7E-1,3.73E-2,2.95164E2,1.0099568E-1,6.1572142E-2,4E0,6E-1,3.69E0,-9.7E-2,2E0,-8.475706E-3,-7.0153214E-2,-4.834177E-2,4.1839913E-2,9.914144E-2,-4.1604824E-2,6.1371066E-2,-6.939336E-2,-6.4167745E-2,-8.116887E-3,9.22504E-2,-4.659434E-2,-7.178609E-2,3.5507747E-3,-6.377188E-2,7.071203E-2,-6.987028E-2,6.9549815E-3,-4.2882983E-2,-7.206301E-2,-7.007003E-2,-1.0752614E-2,4.572149E-2,-6.1403986E-2,6.761124E-2,-4.299587E-2,-6.842695E-2,3.2488552E-3,-9.883841E-3,-7.17379E-2,-5.3608507E-2,1.7433569E-3,-6.0776103E-2,1.7260225E-2,9.466078E-2,7.655737E-3,3.9724525E-2,1.2538652E-1,-4.812952E-2,1.039744E-1,-6.4326346E-2,1.9923659E-2],"split_indices":[48,86,33,18,35,34,18,33,18,86,32,57,50,86,7,33,7,34,71,32,48,33,60,42,0,19,34,35,58,0,0,44,15,24,36,32,3,67,82,33,36,0,10,69,0,0,57,19,39,55,0,0,35,81,27,54,35,0,0,0,0,0,0,0,0,0,0,0,0,0,0,0,0,0,0,0,0,0,0,0,0,0,0,0,0,0,0,0,0,0,0,0,0,0,0,0,0,0,0],"split_type":[0,0,0,0,0,0,0,0,0,0,0,0,0,0,0,0,0,0,0,0,0,0,0,0,0,0,0,0,0,0,0,0,0,0,0,0,0,0,0,0,0,0,0,0,0,0,0,0,0,0,0,0,0,0,0,0,0,0,0,0,0,0,0,0,0,0,0,0,0,0,0,0,0,0,0,0,0,0,0,0,0,0,0,0,0,0,0,0,0,0,0,0,0,0,0,0,0,0,0],"sum_hessian":[2.7002417E3,1.8831853E3,8.1705646E2,7.813641E2,1.1018212E3,1.16920616E2,7.0013586E2,3.9376706E2,3.8759702E2,1.0690946E3,3.2726627E1,8.287265E1,3.4047966E1,6.29994E2,7.014184E1,1.03471634E2,2.902954E2,5.9733738E1,3.2786328E2,3.4438208E2,7.247125E2,1.3660023E1,1.9066605E1,8.0692474E1,2.1801717E0,8.436463E0,2.5611504E1,5.83996E2,4.599803E1,1.299237E0,6.8842606E1,6.825056E1,3.5221073E1,2.5924606E2,3.1049368E1,3.9093437E1,2.06403E1,3.1833817E2,9.525098E0,1.3473958E2,2.096425E2,1.3139769E0,7.2339856E2,6.8568664E0,6.8031564E0,1.1258986E1,7.807618E0,2.1178738E1,5.951374E1,3.9320736E0,4.5043902E0,1.7553198E0,2.3856184E1,2.3618546E2,3.4781052E2,1.0013457E1,3.5984573E1,1.70278E0,6.654778E1,1.2901682E1,2.2319391E1,2.4872087E2,1.0525184E1,1.0424271E1,2.0625097E1,2.8246506E1,1.08469305E1,1.1840148E1,8.800154E0,3.1706308E2,1.2750839E0,7.278738E0,2.2463598E0,6.4616066E1,7.012352E1,4.0403263E1,1.6923924E2,7.216472E2,1.7513107E0,1.2970982E0,5.559768E0,3.0558038E0,4.751815E0,1.4687142E1,6.4915943E0,1.7326815E0,5.7781055E1,2.6275263E0,1.3045472E0,2.0775654E1,3.0805302E0,2.0591472E2,3.0270737E1,7.319428E0,3.404911E2,1.7762096E0,8.237247E0,2.7887804E1,8.096771E0],"tree_param":{"num_deleted":"0","num_feature":"88","num_nodes":"99","size_leaf_vector":"1"}},{"base_weights":[3.4888726E-1,7.611124E-2,1.1717436E0,-2.1957916E-1,9.427392E-1,5.7926226E-1,1.2183574E0,5.361793E-2,-6.300813E-1,1.2044127E0,6.126925E-1,9.396113E-1,1.4752823E-1,7.9932284E-1,1.242662E0,9.09759E-1,-7.246098E-2,5.381128E-1,-6.581243E-1,1.2249055E0,-2.1523686E-1,3.4908783E-1,1.0358624E0,1.3640714E-2,1.078993E0,6.4190364E-1,-2.8117433E-1,-5.440814E-2,9.163662E-1,1.2467918E0,3.5839733E-1,2.9520875E-1,1.0923202E0,-3.8761684E-1,1.965093E-1,1.0808032E0,-5.392684E-2,-6.7495453E-1,2.9250798E-1,3.4550196E-1,1.236396E0,3.925815E-2,-5.489111E-2,2.0484935E-1,8.5631305E-1,-2.6209623E-1,1.0778459E0,7.827064E-2,-5.4921355E-2,1.2363839E0,3.779995E-1,8.8709676E-1,-4.8095293E-2,-5.738969E-1,2.7258047E-1,1.0670124E0,-8.4561326E-2,9.594357E-1,1.2624849E0,8.5557155E-2,-4.1839264E-2,-4.4473138E-2,5.843783E-2,2.7862815E-2,1.17922954E-1,7.621976E-2,-4.3218832E-2,-2.5646342E-2,5.3423908E-2,1.165758E-1,3.910235E-2,7.6710574E-2,-6.105682E-2,1.06855206E-1,-6.831488E-2,-4.0378164E-2,7.3480144E-2,-4.8450552E-2,9.340227E-2,2.1511192E-2,1.2456365E-1,-1.51818665E-2,3.9217602E-2,-4.0661704E-2,1.0506322E-1,3.5276797E-4,-4.1621484E-2,1.1845081E-1,6.297313E-2,1.2858905E-1,3.5242423E-2,-5.187806E-2,1.05472445E-1,1.20156385E-1,1.4540369E-2,-6.6570304E-2,-9.930321E-4,-4.8973065E-2,7.712047E-2,-1.2468826E-2,1.14515245E-1,-5.5309653E-2,5.548376E-2,1.0279377E-1,-4.369326E-2,3.6840674E-2,1.2640558E-1],"categories":[],"categories_nodes":[],"categories_segments":[],"categories_sizes":[],"default_left":[0,0,0,0,0,0,0,0,0,0,0,0,0,0,0,0,0,0,0,0,0,0,0,0,0,0,0,0,0,0,0,0,0,0,0,0,0,0,0,0,0,0,0,0,0,0,0,0,0,0,0,0,0,0,0,0,0,0,0,0,0,0,0,0,0,0,0,0,0,0,0,0,0,0,0,0,0,0,0,0,0,0,0,0,0,0,0,0,0,0,0,0,0,0,0,0,0,0,0,0,0,0,0,0,0,0,0],"id":5,"left_children":[1,3,5,7,9,11,13,15,17,19,21,23,25,27,29,31,33,35,37,39,41,43,45,47,49,51,53,-1,55,57,59,61,63,65,67,69,71,73,75,77,79,-1,-1,81,83,85,87,-1,-1,89,91,93,-1,95,97,99,101,103,105,-1,-1,-1,-1,-1,-1,-1,-1,-1,-1,-1,-1,-1,-1,-1,-1,-1,-1,-1,-1,-1,-1,-1,-1,-1,-1,-1,-1,-1,-1,-1,-1,-1,-1,-1,-1,-1,-1,-1,-1,-1,-1,-1,-1,-1,-1,-1,-1],"loss_changes":[6.2146985E2,5.334247E2,1.8333008E1,1.7411853E2,4.499582E1,7.9803333E0,5.5062866E0,1.0076756E2,2.0676575E1,8.826508E0,2.5987839E1,3.6324482E0,5.463731E0,6.4403744E0,1.7493896E0,1.3121147E1,6.908575E1,4.9075108E0,9.897095E0,2.5061646E0,1.2374231E0,1.0583382E1,5.195427E0,2.4686728E0,2.2411137E0,3.697925E0,2.433267E0,0E0,5.387787E0,1.486145E0,1.97966E0,6.4251356E0,6.1782684E0,1.9558208E1,6.7433975E1,8.398056E-3,4.20254E0,9.244995E0,3.7595112E0,2.9593613E0,2.4325562E0,0E0,0E0,7.7972655E0,8.340418E0,1.5004057E-1,3.437645E0,0E0,0E0,4.04871E-1,4.1529446E0,2.181891E0,0E0,4.8581862E-1,2.481696E0,2.993206E0,1.9613389E0,3.810669E0,3.265381E-1,0E0,0E0,0E0,0E0,0E0,0E0,0E0,0E0,0E0,0E0,0E0,0E0,0E0,0E0,0E0,0E0,0E0,0E0,0E0,0E0,0E0,0E0,0E0,0E0,0E0,0E0,0E0,0E0,0E0,0E0,0E0,0E0,0E0,0E0,0E0,0E0,0E0,0E0,0E0,0E0,0E0,0E0,0E0,0E0,0E0,0E0,0E0,0E0],"parents":[2147483647,0,0,1,1,2,2,3,3,4,4,5,5,6,6,7,7,8,8,9,9,10,10,11,11,12,12,13,13,14,14,15,15,16,16,17,17,18,18,19,19,20,20,21,21,22,22,23,23,24,24,25,25,26,26,28,28,29,29,30,30,31,31,32,32,33,33,34,34,35,35,36,36,37,37,38,38,39,39,40,40,43,43,44,44,45,45,46,46,49,49,50,50,51,51,53,53,54,54,55,55,56,56,57,57,58,58],"right_children":[2,4,6,8,10,12,14,16,18,20,22,24,26,28,30,32,34,36,38,40,42,44,46,48,50,52,54,-1,56,58,60,62,64,66,68,70,72,74,76,78,80,-1,-1,82,84,86,88,-1,-1,90,92,94,-1,96,98,100,102,104,106,-1,-1,-1,-1,-1,-1,-1,-1,-1,-1,-1,-1,-1,-1,-1,-1,-1,-1,-1,-1,-1,-1,-1,-1,-1,-1,-1,-1,-1,-1,-1,-1,-1,-1,-1,-1,-1,-1,-1,-1,-1,-1,-1,-1,-1,-1,-1,-1],"split_conditions":[1.472E1,1.83E0,1.49E1,-1.62E-1,1.457E1,3.7E-1,1.02171E-1,4.24E0,2.54E0,3E0,3.909E0,8.16E-1,2.6E-4,6.09E-3,3E0,2.7E-1,5.5897503E0,7.27E1,9.49E-1,9.003E0,9.3E-2,6.3307304E0,8.913E0,1.01E0,2.7E-1,1.8540503E1,4.79E0,-5.440814E-2,-3.921E1,1.7215E0,6.634E1,1.87E0,1.5132E0,2.703E-2,4.9E-1,2.6E-5,1.752E0,-4.2E0,9.04E-4,1.33E-1,7.3129215E0,3.925815E-2,-5.489111E-2,2.5E-1,6.7E0,8.24E1,3.5998654E2,7.827064E-2,-5.4921355E-2,5.0492958E1,2.69E-1,1.9672E1,-4.8095293E-2,1.868E0,4.5E-4,3.5E-2,4E-1,1.47E1,2.9E-2,8.5557155E-2,-4.1839264E-2,-4.4473138E-2,5.843783E-2,2.7862815E-2,1.17922954E-1,7.621976E-2,-4.3218832E-2,-2.5646342E-2,5.3423908E-2,1.165758E-1,3.910235E-2,7.6710574E-2,-6.105682E-2,1.06855206E-1,-6.831488E-2,-4.0378164E-2,7.3480144E-2,-4.8450552E-2,9.340227E-2,2.1511192E-2,1.2456365E-1,-1.51818665E-2,3.9217602E-2,-4.0661704E-2,1.0506322E-1,3.5276797E-4,-4.1621484E-2,1.1845081E-1,6.297313E-2,1.2858905E-1,3.5242423E-2,-5.187806E-2,1.05472445E-1,1.20156385E-1,1.4540369E-2,-6.6570304E-2,-9.930321E-4,-4.8973065E-2,7.712047E-2,-1.2468826E-2,1.14515245E-1,-5.5309653E-2,5.548376E-2,1.0279377E-1,-4.369326E-2,3.6840674E-2,1.2640558E-1],"split_indices":[18,86,34,48,27,81,12,27,27,35,86,52,73,7,35,81,32,9,7,64,79,32,62,24,83,33,6,0,26,6,4,18,6,15,86,72,27,68,13,7,33,0,0,47,10,9,0,0,0,33,4,66,0,52,73,86,85,28,53,0,0,0,0,0,0,0,0,0,0,0,0,0,0,0,0,0,0,0,0,0,0,0,0,0,0,0,0,0,0,0,0,0,0,0,0,0,0,0,0,0,0,0,0,0,0,0,0],"split_type":[0,0,0,0,0,0,0,0,0,0,0,0,0,0,0,0,0,0,0,0,0,0,0,0,0,0,0,0,0,0,0,0,0,0,0,0,0,0,0,0,0,0,0,0,0,0,0,0,0,0,0,0,0,0,0,0,0,0,0,0,0,0,0,0,0,0,0,0,0,0,0,0,0,0,0,0,0,0,0,0,0,0,0,0,0,0,0,0,0,0,0,0,0,0,0,0,0,0,0,0,0,0,0,0,0,0,0],"sum_hessian":[2.7681863E3,2.0798206E3,6.883658E2,1.5512769E3,5.285436E2,5.1186756E1,6.37179E2,9.319293E2,6.1934753E2,2.933307E2,2.352129E2,2.725874E1,2.3928017E1,3.67889E1,6.0039014E2,1.18825676E2,8.131037E2,1.40927925E1,6.0525476E2,2.892919E2,4.0387754E0,1.4605563E2,8.915728E1,3.7099383E0,2.3548801E1,1.0881855E1,1.3046162E1,2.6559384E0,3.4132957E1,5.97191E2,3.199108E0,2.781384E1,9.101183E1,3.7420355E2,4.3890012E2,6.9221125E0,7.17068E0,5.9501056E2,1.0244199E1,4.1319194E0,2.8515997E2,1.3688139E0,2.6699615E0,1.1481096E2,3.1244667E1,2.6292393E0,8.6528046E1,1.4027139E0,2.3072245E0,1.8607243E1,4.941559E0,9.103852E0,1.7780031E0,8.5108385E0,4.535322E0,2.9610376E1,4.5225816E0,3.4142635E1,5.630484E2,1.888792E0,1.3103158E0,7.6642504E0,2.0149591E1,9.188644E0,8.182319E1,1.3363506E1,3.6084003E2,1.8756854E2,2.5133159E2,5.5486803E0,1.3734324E0,2.7445047E0,4.426175E0,2.178061E0,5.928325E2,4.013281E0,6.230918E0,1.7875818E0,2.3443375E0,2.77468E0,2.823853E2,3.960087E1,7.521009E1,4.020685E0,2.7223982E1,1.3241585E0,1.3050808E0,6.856468E1,1.7963362E1,1.7189825E1,1.4174175E0,2.2256176E0,2.7159414E0,5.957803E0,3.1460495E0,7.1642084E0,1.3466303E0,1.8005006E0,2.7348218E0,1.7854264E0,2.7824951E1,2.6879182E0,1.8346635E0,3.279753E1,1.3451064E0,1.4005988E0,5.6164777E2],"tree_param":{"num_deleted":"0","num_feature":"88","num_nodes":"107","size_leaf_vector":"1"}},{"base_weights":[-2.529405E-1,-4.6150485E-1,1.8953475E-1,-6.342573E-2,-5.151419E-1,-4.6219495E-1,3.4183636E-1,-4.3344796E-1,1.6125104E-1,-5.445938E-1,-1.1481925E-2,-1.5097451E-1,-6.0981864E-1,4.4885933E-1,-3.3057E-1,5.5592734E-2,-5.2659255E-1,-3.2427007E-1,2.9230735E-1,-5.7789284E-1,-2.9699033E-1,1.07366644E-1,-6.546103E-2,-6.573174E-2,2.25198E-2,-6.2643415E-1,3.9725777E-2,6.8736315E-1,1.6071181E-1,-5.44299E-1,1.8300314E-1,-6.168924E-2,7.0508647E-1,-5.523971E-1,4.402293E-2,-6.121254E-1,-1.8268704E-2,4.684298E-2,5.456355E-1,-5.4366875E-1,-6.7589426E-1,-3.3361104E-1,7.1274745E-1,3.4363568E-1,-2.2837931E-1,-2.5076044E-1,4.1290805E-1,3.332513E-2,-6.5175426E-1,8.2887125E-1,-3.4962486E-2,-2.4506025E-1,3.7850475E-1,-6.7748106E-1,-1.8347006E-1,-2.3585291E-1,7.636509E-1,1.2588277E-1,-2.4839213E-2,-5.8925565E-2,-9.0995757E-4,-6.7461364E-2,1.8915227E-3,6.5591305E-2,-2.5007555E-2,-2.5375579E-2,3.8546305E-2,-1.680299E-2,7.2866715E-2,-6.011622E-2,-4.6555236E-2,-6.8168655E-2,1.6115438E-2,-4.568396E-2,-1.3167995E-2,1.0727849E-1,-4.154663E-2,-1.9878676E-2,5.3733315E-2,-5.0819E-2,3.7252244E-2,8.652123E-2,-3.8319938E-2,-2.7216295E-2,9.533531E-2,6.0208727E-2,-4.8572835E-2,-6.609944E-2,5.7144663E-3,-6.2261086E-2,8.515081E-2,-2.7050538E-2,2.6492119E-2,-3.909021E-2,2.7827585E-2,2.1027023E-2,9.197438E-2,-6.9804505E-2,5.8101895E-3,5.5437535E-2,-4.7346648E-2,-5.8841564E-2,4.5505956E-2,9.483228E-2,-1.651568E-2],"categories":[],"categories_nodes":[],"categories_segments":[],"categories_sizes":[],"default_left":[0,0,0,0,0,0,0,0,0,0,0,0,0,0,0,0,0,0,0,0,0,0,0,0,0,0,0,0,0,0,0,0,0,0,0,0,0,0,0,0,0,0,0,0,0,0,0,0,0,0,0,0,0,0,0,0,0,0,0,0,0,0,0,0,0,0,0,0,0,0,0,0,0,0,0,0,0,0,0,0,0,0,0,0,0,0,0,0,0,0,0,0,0,0,0,0,0,0,0,0,0,0,0,0,0],"id":6,"left_children":[1,3,5,7,9,11,13,15,17,19,21,23,25,27,29,31,33,35,37,39,41,43,-1,-1,45,47,-1,49,51,53,55,-1,57,59,-1,61,63,65,67,69,71,73,75,77,79,81,83,85,87,89,91,93,95,97,99,101,103,-1,-1,-1,-1,-1,-1,-1,-1,-1,-1,-1,-1,-1,-1,-1,-1,-1,-1,-1,-1,-1,-1,-1,-1,-1,-1,-1,-1,-1,-1,-1,-1,-1,-1,-1,-1,-1,-1,-1,-1,-1,-1,-1,-1,-1,-1,-1,-1],"loss_changes":[2.4116803E2,3.7883087E1,8.329712E1,1.7694258E1,2.320517E1,7.2168236E0,4.9047882E1,3.6899328E0,8.534297E0,1.2016907E1,6.7558684E0,4.6277804E0,2.0488892E0,4.0205284E1,1.0404273E1,6.445814E0,1.929718E0,2.5138192E0,6.5016136E0,3.9994507E0,6.793848E0,6.0028996E0,0E0,0E0,4.3791904E0,1.7960625E0,0E0,3.28051E1,2.368619E1,3.0734787E0,7.071684E0,0E0,4.255252E0,1.3220482E0,0E0,5.9400034E-1,2.4966156E0,5.6356225E0,6.857663E0,4.0770874E0,1.7238159E0,4.214258E0,3.0957532E0,4.7544374E0,5.4770713E0,3.9077744E0,6.509361E0,1.7322284E0,7.0811844E-1,9.341446E0,3.8498092E0,7.271993E0,1.5661053E1,7.70134E-1,4.394474E0,4.4637294E0,2.2338939E0,0E0,0E0,0E0,0E0,0E0,0E0,0E0,0E0,0E0,0E0,0E0,0E0,0E0,0E0,0E0,0E0,0E0,0E0,0E0,0E0,0E0,0E0,0E0,0E0,0E0,0E0,0E0,0E0,0E0,0E0,0E0,0E0,0E0,0E0,0E0,0E0,0E0,0E0,0E0,0E0,0E0,0E0,0E0,0E0,0E0,0E0,0E0,0E0],"parents":[2147483647,0,0,1,1,2,2,3,3,4,4,5,5,6,6,7,7,8,8,9,9,10,10,11,11,12,12,13,13,14,14,15,15,16,16,17,17,18,18,19,19,20,20,21,21,24,24,25,25,27,27,28,28,29,29,30,30,32,32,33,33,35,35,36,36,37,37,38,38,39,39,40,40,41,41,42,42,43,43,44,44,45,45,46,46,47,47,48,48,49,49,50,50,51,51,52,52,53,53,54,54,55,55,56,56],"right_children":[2,4,6,8,10,12,14,16,18,20,22,24,26,28,30,32,34,36,38,40,42,44,-1,-1,46,48,-1,50,52,54,56,-1,58,60,-1,62,64,66,68,70,72,74,76,78,80,82,84,86,88,90,92,94,96,98,100,102,104,-1,-1,-1,-1,-1,-1,-1,-1,-1,-1,-1,-1,-1,-1,-1,-1,-1,-1,-1,-1,-1,-1,-1,-1,-1,-1,-1,-1,-1,-1,-1,-1,-1,-1,-1,-1,-1,-1,-1,-1,-1,-1,-1,-1,-1,-1,-1,-1],"split_conditions":[9.1E-1,1.2880582E1,5.16E0,6.91E0,1.137543E1,1.31E0,3.33E0,1.33E-1,2.7E-1,7.854611E1,5.6841E4,3.5E0,4.374551E1,1.03343725E1,1.9120535E1,6.4E-2,-2.4E-2,1.6E-2,7.6E-2,3.7258832E2,1.4908E0,-2.5E-1,-6.546103E-2,-6.573174E-2,1.1E-1,7.4330287E0,3.9725777E-2,2.2986928E2,5.0952E0,1E-3,4.461558E1,-6.168924E-2,3.7E-1,8.360916E0,4.402293E-2,1.6828E1,-6.09E-1,4.213E-1,2.08E-1,1.79E1,7.60698E0,0E0,1.6814E4,-1.7E-4,2.9415503E2,5.03E-2,1.3213853E2,-2.7E0,5.071959E1,-4.2E0,1.1E-5,3.59149E0,4.754503E1,1.5921E1,1.3E0,6.874E2,6.40225E1,1.2588277E-1,-2.4839213E-2,-5.8925565E-2,-9.0995757E-4,-6.7461364E-2,1.8915227E-3,6.5591305E-2,-2.5007555E-2,-2.5375579E-2,3.8546305E-2,-1.680299E-2,7.2866715E-2,-6.011622E-2,-4.6555236E-2,-6.8168655E-2,1.6115438E-2,-4.568396E-2,-1.3167995E-2,1.0727849E-1,-4.154663E-2,-1.9878676E-2,5.3733315E-2,-5.0819E-2,3.7252244E-2,8.652123E-2,-3.8319938E-2,-2.7216295E-2,9.533531E-2,6.0208727E-2,-4.8572835E-2,-6.609944E-2,5.7144663E-3,-6.2261086E-2,8.515081E-2,-2.7050538E-2,2.6492119E-2,-3.909021E-2,2.7827585E-2,2.1027023E-2,9.197438E-2,-6.9804505E-2,5.8101895E-3,5.5437535E-2,-4.7346648E-2,-5.8841564E-2,4.5505956E-2,9.483228E-2,-1.651568E-2],"split_indices":[71,33,27,27,15,80,80,50,79,0,9,10,16,33,33,50,54,65,44,33,21,20,0,0,78,33,0,0,32,65,56,0,68,32,0,58,5,31,30,10,15,68,9,74,55,3,1,82,56,68,72,15,56,57,69,9,15,0,0,0,0,0,0,0,0,0,0,0,0,0,0,0,0,0,0,0,0,0,0,0,0,0,0,0,0,0,0,0,0,0,0,0,0,0,0,0,0,0,0,0,0,0,0,0,0],"split_type":[0,0,0,0,0,0,0,0,0,0,0,0,0,0,0,0,0,0,0,0,0,0,0,0,0,0,0,0,0,0,0,0,0,0,0,0,0,0,0,0,0,0,0,0,0,0,0,0,0,0,0,0,0,0,0,0,0,0,0,0,0,0,0,0,0,0,0,0,0,0,0,0,0,0,0,0,0,0,0,0,0,0,0,0,0,0,0,0,0,0,0,0,0,0,0,0,0,0,0,0,0,0,0,0,0],"sum_hessian":[2.61136E3,1.7747662E3,8.3659375E2,2.1099591E2,1.5637704E3,1.5808426E2,6.7850946E2,7.936302E1,1.3163289E2,1.4773026E3,8.646771E1,5.1511135E1,1.0657312E2,5.8563055E2,9.2878914E1,1.27619E1,6.660112E1,2.7665796E1,1.03967094E2,1.3010028E3,1.7629982E2,7.368413E1,1.2783591E1,1.2433955E1,3.907718E1,1.05215164E2,1.3579512E0,3.196589E2,2.6597168E2,6.5542755E1,2.7336155E1,6.294636E0,6.4672647E0,6.528725E1,1.3138716E0,1.3740094E1,1.3925702E1,5.3404903E1,5.056219E1,9.6911536E2,3.3188748E2,1.7077582E2,5.524009E0,4.3235332E1,3.0448793E1,2.319667E1,1.5880508E1,3.8769987E0,1.01338165E2,2.6717096E2,5.2487946E1,9.285237E1,1.7311931E2,4.7231888E1,1.8310867E1,1.6225523E1,1.1110632E1,3.8886492E0,2.5786152E0,6.1060196E1,4.2270536E0,1.243926E1,1.3008347E0,3.094925E0,1.0830777E1,2.84235E1,2.4981403E1,1.033736E1,4.022483E1,5.543901E2,4.1472525E2,3.29791E2,2.0964956E0,1.0527148E2,6.550433E1,4.2248864E0,1.2991229E0,1.136973E1,3.18656E1,2.0880194E1,9.568601E0,1.8738765E0,2.1322794E1,7.2221203E0,8.658388E0,1.7735871E0,2.1034114E0,1.00100975E2,1.2371942E0,3.695722E0,2.6347522E2,2.945251E1,2.3035437E1,7.2813866E1,2.0038504E1,1.331275E2,3.9991814E1,4.599703E1,1.2348586E0,4.909031E0,1.3401836E1,1.0841573E1,5.3839493E0,9.250395E0,1.8602374E0],"tree_param":{"num_deleted":"0","num_feature":"88","num_nodes":"105","size_leaf_vector":"1"}},{"base_weights":[-9.0070516E-2,4.7368434E-1,-3.911542E-1,7.9565626E-1,-1.03163056E-1,-8.589358E-2,-6.022944E-1,9.377436E-1,-5.744157E-1,-4.0664774E-1,4.0153554E-1,-5.967549E-1,4.1013724E-1,-6.202686E-1,-1.0727533E-1,-2.6040256E-1,1.0395995E0,-6.546504E-1,3.1270513E-1,-7.817192E-2,-6.262144E-1,-3.8451034E-1,7.713731E-1,-2.2446144E-1,-6.7081696E-1,-6.5708196E-1,6.695572E-1,-5.217052E-1,-6.7765343E-1,6.9095767E-1,-3.1121826E-1,-4.3686113E-1,2.622115E-1,5.8313493E-2,1.0718485E0,-6.901669E-2,2.3012286E-2,-4.3260373E-2,7.494768E-2,-6.424741E-1,1.22348085E-1,7.840238E-2,-6.484494E-1,4.6669322E-1,-4.6317884E-1,8.7054574E-1,-2.9454333E-1,1.271516E-1,-4.855646E-1,-6.831486E-1,-3.334611E-1,-6.842737E-2,1.7061602E-2,7.654182E-1,-6.120836E-1,-3.3274207E-1,-6.55357E-1,-1.6148588E-2,-6.791312E-1,1.0640525E-1,-4.4339977E-2,-5.1329356E-1,2.373967E-1,-6.354492E-2,-5.0287303E-3,-5.6720804E-2,7.3978685E-2,6.453205E-2,-6.92672E-2,1.0848164E-1,-1.4816098E-2,-6.856056E-2,5.0953426E-3,3.0900195E-2,-5.906221E-2,-6.628158E-2,-5.4242252E-3,9.993254E-2,-3.911453E-2,6.133415E-2,-5.3213127E-2,-3.7673783E-2,9.3980454E-2,-6.253138E-2,5.2653816E-2,6.392201E-2,-4.0736783E-2,1.9489534E-2,-6.329888E-2,-6.86548E-2,-2.1109138E-2,2.2325035E-2,-6.1967667E-2,-2.3756584E-2,8.65012E-2,4.108612E-2,-7.032849E-2,-6.4418346E-2,-2.5426492E-3,-4.7020838E-2,-6.8784945E-2,-3.646797E-2,-6.806109E-2,4.117876E-2,-5.916306E-2,6.1887573E-2,-5.147804E-2],"categories":[],"categories_nodes":[],"categories_segments":[],"categories_sizes":[],"default_left":[0,0,0,0,0,0,0,0,0,0,0,0,0,0,0,0,0,0,0,0,0,0,0,0,0,0,0,0,0,0,0,0,0,0,0,0,0,0,0,0,0,0,0,0,0,0,0,0,0,0,0,0,0,0,0,0,0,0,0,0,0,0,0,0,0,0,0,0,0,0,0,0,0,0,0,0,0,0,0,0,0,0,0,0,0,0,0,0,0,0,0,0,0,0,0,0,0,0,0,0,0,0,0,0,0,0,0],"id":7,"left_children":[1,3,5,7,9,11,13,15,17,19,21,23,25,27,29,31,33,35,37,39,41,43,45,47,49,51,53,55,57,59,61,63,65,67,69,-1,-1,-1,-1,71,73,-1,75,77,79,81,83,85,87,89,91,-1,-1,93,95,97,99,-1,101,-1,-1,103,105,-1,-1,-1,-1,-1,-1,-1,-1,-1,-1,-1,-1,-1,-1,-1,-1,-1,-1,-1,-1,-1,-1,-1,-1,-1,-1,-1,-1,-1,-1,-1,-1,-1,-1,-1,-1,-1,-1,-1,-1,-1,-1,-1,-1],"loss_changes":[4.546838E2,1.7330154E2,1.1248337E2,1.17082214E2,5.1470863E1,1.8144179E2,9.115387E0,6.651309E1,4.252836E0,1.5073944E1,3.701065E1,9.573509E0,1.0104627E2,5.277527E0,6.298111E0,4.110282E0,1.57751465E1,1.8079376E0,2.0801175E0,9.713657E0,4.444725E0,2.9667058E0,9.370239E0,5.572E0,9.9380493E-1,1.7273979E0,3.644449E1,9.143951E0,3.6776733E-1,3.8214684E0,3.4978125E0,2.4835029E0,4.9993544E0,7.9330926E0,7.8256836E0,0E0,0E0,0E0,0E0,7.0741177E-1,8.655024E0,0E0,1.0237122E0,2.2062697E0,3.1546736E0,7.1897087E0,2.5252938E0,7.477971E0,3.5993748E0,3.081665E-1,2.0996618E0,0E0,0E0,2.7464691E1,2.2419014E0,1.4876385E1,9.765701E-1,0E0,4.2053223E-2,0E0,0E0,1.8793039E0,2.866904E0,0E0,0E0,0E0,0E0,0E0,0E0,0E0,0E0,0E0,0E0,0E0,0E0,0E0,0E0,0E0,0E0,0E0,0E0,0E0,0E0,0E0,0E0,0E0,0E0,0E0,0E0,0E0,0E0,0E0,0E0,0E0,0E0,0E0,0E0,0E0,0E0,0E0,0E0,0E0,0E0,0E0,0E0,0E0,0E0],"parents":[2147483647,0,0,1,1,2,2,3,3,4,4,5,5,6,6,7,7,8,8,9,9,10,10,11,11,12,12,13,13,14,14,15,15,16,16,17,17,18,18,19,19,20,20,21,21,22,22,23,23,24,24,25,25,26,26,27,27,28,28,29,29,30,30,31,31,32,32,33,33,34,34,39,39,40,40,42,42,43,43,44,44,45,45,46,46,47,47,48,48,49,49,50,50,53,53,54,54,55,55,56,56,58,58,61,61,62,62],"right_children":[2,4,6,8,10,12,14,16,18,20,22,24,26,28,30,32,34,36,38,40,42,44,46,48,50,52,54,56,58,60,62,64,66,68,70,-1,-1,-1,-1,72,74,-1,76,78,80,82,84,86,88,90,92,-1,-1,94,96,98,100,-1,102,-1,-1,104,106,-1,-1,-1,-1,-1,-1,-1,-1,-1,-1,-1,-1,-1,-1,-1,-1,-1,-1,-1,-1,-1,-1,-1,-1,-1,-1,-1,-1,-1,-1,-1,-1,-1,-1,-1,-1,-1,-1,-1,-1,-1,-1,-1,-1],"split_conditions":[1.6E-1,6.1E-1,6.1E-1,1.472E1,2E0,-8.5E-1,3E0,1.1060613E1,2E0,1.3E0,1.04126625E1,1.344E1,1.03343725E1,1.35E0,1.3E-1,3E0,-7.33E1,-4.3E0,2.977E0,1.2E1,2.4549645E6,7.89E-2,4.6E0,1.8E-1,7.1E-1,3E0,1.3E0,5.508401E0,-1.71E3,3.05E-1,1.3289E1,9.948514E0,8.432558E0,6.3E1,1.502E0,-6.901669E-2,2.3012286E-2,-4.3260373E-2,7.494768E-2,1.05E0,8.8E-1,7.840238E-2,5.76E-1,1.5E0,-3.3E-1,-1.52E2,8.955E1,-3.6E-2,1.23E-1,5.127134E1,-4.6E-1,-6.842737E-2,1.7061602E-2,1.3427E1,3.1E-2,1.04126625E1,4.1E1,-1.6148588E-2,2E-3,1.0640525E-1,-4.4339977E-2,1.1219E1,5.9E-2,-6.354492E-2,-5.0287303E-3,-5.6720804E-2,7.3978685E-2,6.453205E-2,-6.92672E-2,1.0848164E-1,-1.4816098E-2,-6.856056E-2,5.0953426E-3,3.0900195E-2,-5.906221E-2,-6.628158E-2,-5.4242252E-3,9.993254E-2,-3.911453E-2,6.133415E-2,-5.3213127E-2,-3.7673783E-2,9.3980454E-2,-6.253138E-2,5.2653816E-2,6.392201E-2,-4.0736783E-2,1.9489534E-2,-6.329888E-2,-6.86548E-2,-2.1109138E-2,2.2325035E-2,-6.1967667E-2,-2.3756584E-2,8.65012E-2,4.108612E-2,-7.032849E-2,-6.4418346E-2,-2.5426492E-3,-4.7020838E-2,-6.8784945E-2,-3.646797E-2,-6.806109E-2,4.117876E-2,-5.916306E-2,6.1887573E-2,-5.147804E-2],"split_indices":[47,80,80,18,35,20,35,33,35,80,33,18,33,80,7,35,11,11,6,34,2,39,80,69,71,35,71,32,11,50,64,33,33,34,52,0,0,0,0,76,19,0,65,80,46,42,22,5,53,56,5,0,0,59,44,33,36,0,4,0,0,57,44,0,0,0,0,0,0,0,0,0,0,0,0,0,0,0,0,0,0,0,0,0,0,0,0,0,0,0,0,0,0,0,0,0,0,0,0,0,0,0,0,0,0,0,0],"split_type":[0,0,0,0,0,0,0,0,0,0,0,0,0,0,0,0,0,0,0,0,0,0,0,0,0,0,0,0,0,0,0,0,0,0,0,0,0,0,0,0,0,0,0,0,0,0,0,0,0,0,0,0,0,0,0,0,0,0,0,0,0,0,0,0,0,0,0,0,0,0,0,0,0,0,0,0,0,0,0,0,0,0,0,0,0,0,0,0,0,0,0,0,0,0,0,0,0,0,0,0,0,0,0,0,0,0,0],"sum_hessian":[2.676657E3,9.316481E2,1.745009E3,5.976729E2,3.339752E2,7.1405493E2,1.0309541E3,5.4179956E2,5.587334E1,2.0868393E2,1.2529127E2,3.516688E2,3.6238614E2,9.945874E2,3.636669E1,4.232839E1,4.9947116E2,5.1479393E1,4.3939495E0,8.415E1,1.24533936E2,4.007562E1,8.5215645E1,5.901986E1,2.9264893E2,7.0563675E1,2.9182248E2,3.6969528E2,6.248921E2,6.9146686E0,2.9452024E1,3.1766605E1,1.0561784E1,1.5981679E1,4.8348947E2,4.9704124E1,1.7752675E0,1.6270638E0,2.7668855E0,2.1484476E1,6.2665524E1,1.4012306E0,1.23132706E2,2.9731655E0,3.710245E1,7.812976E1,7.0858874E0,2.536937E1,3.365049E1,2.8133987E2,1.1309059E1,6.848701E1,2.0766675E0,2.7188916E2,1.9933308E1,1.5460173E2,2.1509355E2,2.0987687E0,6.2279333E2,5.249925E0,1.6647437E0,2.1571003E1,7.8810215E0,2.0560572E1,1.1206034E1,3.7906914E0,6.771092E0,9.049134E0,6.9325447E0,4.7851407E2,4.9754133E0,2.0237005E1,1.2474705E0,5.0112732E1,1.2552793E1,1.20113235E2,3.0194726E0,1.7325134E0,1.240652E0,1.7581519E0,3.53443E1,3.8765852E0,7.4253174E1,5.221034E0,1.8648531E0,1.2856751E1,1.2512617E1,5.9349203E0,2.771557E1,2.7887726E2,2.4626074E0,3.9146848E0,7.394374E0,2.4434124E1,2.4745505E2,1.3447808E0,1.8588526E1,7.6241005E1,7.8360725E1,3.4421917E1,1.8067165E2,4.0758967E0,6.187174E2,1.3517369E0,2.0219265E1,5.346617E0,2.5344045E0],"tree_param":{"num_deleted":"0","num_feature":"88","num_nodes":"107","size_leaf_vector":"1"}},{"base_weights":[3.141831E-1,6.870323E-1,-1.7869146E-1,8.7190336E-1,-4.241439E-2,8.7232614E-1,-2.6096877E-1,1.0059474E0,5.6092125E-1,-3.525556E-1,9.782301E-1,9.5118195E-1,1.2013007E-1,-4.530785E-1,2.4872117E-1,7.837256E-1,1.0928425E0,3.6908108E-1,1.0625054E0,-5.8309233E-1,7.974685E-1,1.0095613E0,-4.3110427E-2,9.710694E-1,-7.5132535E-3,7.713726E-2,-4.6739185E-1,-5.0083727E-1,5.666953E-1,3.5296378E-1,-2.5034657E-1,2.316031E-1,9.4609416E-1,1.099023E0,1.301514E-1,-2.0979175E-1,5.955367E-1,-1.6355863E-1,1.103875E0,6.3149935E-1,-6.1719793E-1,-4.2395335E-1,9.526373E-1,5.703528E-1,1.1374193E0,4.142782E-1,1.0206215E0,-2.4918434E-3,-6.0318947E-2,-5.599182E-1,1.1752711E-1,8.303051E-1,-3.3993024E-1,6.734185E-1,2.5187355E-1,-4.178022E-1,5.6594515E-1,-1.3498482E-2,9.710961E-2,7.266983E-2,1.12603664E-1,1.1017386E-1,1.3915327E-2,8.024201E-2,-5.2104115E-2,-3.9078455E-2,5.3493775E-2,9.6355915E-2,4.14791E-2,3.4439825E-2,-5.3238172E-2,4.5129802E-2,1.1557926E-1,9.962507E-2,-1.4889799E-2,8.275936E-2,-6.311558E-2,-6.484305E-4,-5.587505E-2,1.0365009E-1,-4.7726523E-2,-7.10355E-3,9.779031E-2,3.1536613E-2,1.1533689E-1,7.660954E-2,-5.0147124E-2,1.6488025E-2,1.0414916E-1,-5.723787E-2,5.4862805E-2,5.3422432E-2,-2.3164926E-2,-7.811448E-3,8.808697E-2,7.5675E-2,-6.462076E-2,2.7607638E-2,8.567419E-2,3.6139525E-2,-3.4439307E-2,7.642655E-2,-5.542642E-2,8.936393E-2,-2.3950046E-2],"categories":[],"categories_nodes":[],"categories_segments":[],"categories_sizes":[],"default_left":[0,0,0,0,0,0,0,0,0,0,0,0,0,0,0,0,0,0,0,0,0,0,0,0,0,0,0,0,0,0,0,0,0,0,0,0,0,0,0,0,0,0,0,0,0,0,0,0,0,0,0,0,0,0,0,0,0,0,0,0,0,0,0,0,0,0,0,0,0,0,0,0,0,0,0,0,0,0,0,0,0,0,0,0,0,0,0,0,0,0,0,0,0,0,0,0,0,0,0,0,0,0,0,0,0],"id":8,"left_children":[1,3,5,7,9,11,13,15,17,19,21,23,25,27,29,31,33,35,37,39,41,43,-1,45,-1,-1,47,49,51,53,55,57,59,61,63,65,67,69,71,73,75,77,79,81,83,85,87,-1,-1,89,91,93,95,97,99,101,103,-1,-1,-1,-1,-1,-1,-1,-1,-1,-1,-1,-1,-1,-1,-1,-1,-1,-1,-1,-1,-1,-1,-1,-1,-1,-1,-1,-1,-1,-1,-1,-1,-1,-1,-1,-1,-1,-1,-1,-1,-1,-1,-1,-1,-1,-1,-1,-1],"loss_changes":[5.1191812E2,2.1388397E2,1.04018234E2,5.217517E1,1.0214211E2,5.0679626E0,1.0917901E2,1.6191284E1,3.649424E1,6.60505E1,3.7562866E0,1.6840439E0,3.9703913E0,3.970009E1,1.5984617E1,2.2345932E1,3.618042E0,3.6674934E1,5.5327682E0,8.949959E0,8.313086E0,3.4998398E0,0E0,1.7155457E0,0E0,0E0,3.2041287E-1,2.8329636E1,9.047633E0,8.031954E0,7.533141E0,1.599664E1,6.8478546E0,1.4835815E0,2.6799831E0,1.087668E1,1.2948982E1,9.917889E-1,2.9411392E0,1.8956401E0,4.5859833E0,3.000282E-1,4.971836E0,4.9478498E0,3.732834E-1,2.967107E0,1.087143E0,0E0,0E0,1.0070755E1,1.0060986E1,1.3873291E0,3.5023499E0,4.14246E0,1.2797318E1,7.6613097E0,2.7244136E0,0E0,0E0,0E0,0E0,0E0,0E0,0E0,0E0,0E0,0E0,0E0,0E0,0E0,0E0,0E0,0E0,0E0,0E0,0E0,0E0,0E0,0E0,0E0,0E0,0E0,0E0,0E0,0E0,0E0,0E0,0E0,0E0,0E0,0E0,0E0,0E0,0E0,0E0,0E0,0E0,0E0,0E0,0E0,0E0,0E0,0E0,0E0,0E0],"parents":[2147483647,0,0,1,1,2,2,3,3,4,4,5,5,6,6,7,7,8,8,9,9,10,10,11,11,12,12,13,13,14,14,15,15,16,16,17,17,18,18,19,19,20,20,21,21,23,23,26,26,27,27,28,28,29,29,30,30,31,31,32,32,33,33,34,34,35,35,36,36,37,37,38,38,39,39,40,40,41,41,42,42,43,43,44,44,45,45,46,46,49,49,50,50,51,51,52,52,53,53,54,54,55,55,56,56],"right_children":[2,4,6,8,10,12,14,16,18,20,22,24,26,28,30,32,34,36,38,40,42,44,-1,46,-1,-1,48,50,52,54,56,58,60,62,64,66,68,70,72,74,76,78,80,82,84,86,88,-1,-1,90,92,94,96,98,100,102,104,-1,-1,-1,-1,-1,-1,-1,-1,-1,-1,-1,-1,-1,-1,-1,-1,-1,-1,-1,-1,-1,-1,-1,-1,-1,-1,-1,-1,-1,-1,-1,-1,-1,-1,-1,-1,-1,-1,-1,-1,-1,-1,-1,-1,-1,-1,-1,-1],"split_conditions":[7E-3,-1.6E-1,3.1507E0,3.2E0,1.344E1,2E0,9.335973E1,-1.2942E-1,3.14E0,2E0,2.231E0,1.1890688E2,1.883E0,1.472E1,-1.9E-1,5.4E-1,3E0,5.5897503E0,-3.4E0,2.54E0,1.0653E1,2.682E1,-4.3110427E-2,1.5132E0,-7.5132535E-3,7.713726E-2,1.316002E2,1.669E0,6.7E-1,8.556E0,1.2E-3,1.472E1,2.2E0,2.2E0,1.2E0,3.5424E2,-8E-3,1.73E1,-2.81E-1,7E-5,-4.642E1,-3.3E0,1.137543E1,5.2E-1,-8.3E0,3.6E-1,4.4E-2,-2.4918434E-3,-6.0318947E-2,2.3267584E2,3.8E0,5.5E0,1.3293631E2,4.216605E1,4.841788E1,7.6664257E0,1.5085E1,-1.3498482E-2,9.710961E-2,7.266983E-2,1.12603664E-1,1.1017386E-1,1.3915327E-2,8.024201E-2,-5.2104115E-2,-3.9078455E-2,5.3493775E-2,9.6355915E-2,4.14791E-2,3.4439825E-2,-5.3238172E-2,4.5129802E-2,1.1557926E-1,9.962507E-2,-1.4889799E-2,8.275936E-2,-6.311558E-2,-6.484305E-4,-5.587505E-2,1.0365009E-1,-4.7726523E-2,-7.10355E-3,9.779031E-2,3.1536613E-2,1.1533689E-1,7.660954E-2,-5.0147124E-2,1.6488025E-2,1.0414916E-1,-5.723787E-2,5.4862805E-2,5.3422432E-2,-2.3164926E-2,-7.811448E-3,8.808697E-2,7.5675E-2,-6.462076E-2,2.7607638E-2,8.567419E-2,3.6139525E-2,-3.4439307E-2,7.642655E-2,-5.542642E-2,8.936393E-2,-2.3950046E-2],"split_indices":[65,48,27,28,18,35,0,17,86,86,52,33,27,18,48,80,35,32,8,27,59,18,0,6,0,0,1,86,69,33,73,18,86,85,28,25,14,10,45,75,68,70,15,86,82,77,86,0,0,16,28,10,1,56,56,33,61,0,0,0,0,0,0,0,0,0,0,0,0,0,0,0,0,0,0,0,0,0,0,0,0,0,0,0,0,0,0,0,0,0,0,0,0,0,0,0,0,0,0,0,0,0,0,0,0],"split_type":[0,0,0,0,0,0,0,0,0,0,0,0,0,0,0,0,0,0,0,0,0,0,0,0,0,0,0,0,0,0,0,0,0,0,0,0,0,0,0,0,0,0,0,0,0,0,0,0,0,0,0,0,0,0,0,0,0,0,0,0,0,0,0,0,0,0,0,0,0,0,0,0,0,0,0,0,0,0,0,0,0,0,0,0,0,0,0,0,0,0,0,0,0,0,0,0,0,0,0,0,0,0,0,0,0],"sum_hessian":[2.7840105E3,1.5847709E3,1.1992396E3,1.2641813E3,3.205896E2,8.636777E1,1.1128718E3,8.818422E2,3.8233902E2,2.4637784E2,7.421177E1,7.7933174E1,8.434594E0,8.083164E2,3.0455545E2,2.5070921E2,6.31133E2,2.7781815E2,1.04520874E2,2.0564641E2,4.0731422E1,7.287532E1,1.3364456E0,7.650453E1,1.4286387E0,3.8519495E0,4.582645E0,7.7264044E2,3.5675972E1,2.5217519E2,5.2380253E1,5.752523E1,1.9318399E2,6.2696625E2,4.1667695E0,7.814222E1,1.9967593E2,3.315206E0,1.01205666E2,5.1383967E0,2.0050801E2,4.395979E0,3.6335445E1,1.7662664E1,5.5212658E1,7.0171394E0,6.94874E1,1.3540854E0,3.2285593E0,7.053437E2,6.729675E1,2.770474E1,7.9712305E0,5.9116154E1,1.9305904E2,4.3869045E1,8.511209E0,3.90062E1,1.8519032E1,8.931937E1,1.03864624E2,6.250501E2,1.9161199E0,1.9359403E0,2.2308292E0,6.3246567E1,1.489565E1,6.4340034E1,1.353359E2,1.4224201E0,1.8927859E0,8.172624E0,9.303304E1,3.3132274E0,1.8251692E0,1.3607694E0,1.9914725E2,1.3287921E0,3.0671866E0,3.4582317E1,1.753125E0,7.1833935E0,1.047927E1,1.4462085E0,5.376645E1,5.1875744E0,1.8295653E0,1.8662308E0,6.762116E1,6.9798175E2,7.3618984E0,3.0440254E1,3.68565E1,1.4320662E0,2.6272675E1,1.4190984E0,6.552132E0,1.9454866E1,3.9661285E1,1.6343361E2,2.962543E1,4.064112E0,3.980493E1,5.9720097E0,2.5391984E0],"tree_param":{"num_deleted":"0","num_feature":"88","num_nodes":"105","size_leaf_vector":"1"}},{"base_weights":[-2.3131445E-1,-4.4295415E-1,1.6382076E-1,-1.144346E-1,-4.9128923E-1,-4.5279023E-1,2.9925594E-1,-4.2750046E-1,7.9835996E-2,-5.3460795E-1,-2.4002112E-1,-1.9659342E-1,-6.290542E-1,3.9175138E-1,-3.1500623E-1,-5.596146E-1,-1.371099E-1,-3.885885E-1,2.0707735E-1,-3.239986E-1,-5.694425E-1,1.907485E-1,-3.1389764E-1,5.8316827E-1,-3.4063897E-1,4.4080757E-2,-6.5768725E-1,5.880877E-1,1.6076829E-1,-4.953296E-1,1.3698617E-1,-6.089672E-1,4.9879022E-2,-3.2763416E-1,3.718976E-1,-5.1910627E-1,1.6469795E-1,4.3096286E-1,1.8537132E-2,5.0209254E-1,-3.7606072E-1,-5.2666706E-1,-6.751701E-1,6.9508684E-1,-1.3365188E-1,-3.5177478E-1,6.239651E-1,9.825412E-1,-3.2612202E-1,-5.6083775E-1,2.399485E-1,5.9396673E-2,-4.7258332E-2,-6.6816187E-1,6.213263E-3,7.21048E-1,8.377032E-2,4.1299975E-1,-5.97783E-2,-6.377684E-1,-1.4583215E-1,-3.1535077E-1,5.307225E-1,-6.440074E-2,2.1019313E-2,7.06852E-2,-4.5564905E-2,-4.93632E-2,8.4768124E-2,3.668919E-3,-5.8844574E-2,9.733597E-2,-3.6372386E-2,5.8104303E-2,-4.2100556E-2,7.371293E-2,-8.050772E-3,-5.0185323E-2,8.5098796E-2,-1.962359E-2,-4.8815947E-2,-4.6633065E-2,-6.1000645E-2,-6.783576E-2,5.884441E-3,-4.0756498E-2,8.5248165E-2,-6.369228E-2,1.4508533E-2,1.6922502E-2,-3.944191E-2,-4.234142E-2,9.130364E-2,2.879137E-3,1.1650091E-1,-1.6104231E-3,-4.702654E-2,-6.041617E-2,4.5286443E-2,-5.4317128E-2,1.11973874E-1,-6.788738E-2,-2.8497389E-2,7.74003E-2,-5.9046554E-3,-2.690565E-2,2.6972765E-2,7.5703144E-2,3.13467E-2,-2.3069011E-2,2.771081E-2,7.481649E-3,-6.770401E-2,-4.838597E-2,5.826078E-2,3.0444575E-2,-5.5526644E-2,1.0768246E-1,1.4993112E-2],"categories":[],"categories_nodes":[],"categories_segments":[],"categories_sizes":[],"default_left":[0,0,0,0,0,0,0,0,0,0,0,0,0,0,0,0,0,0,0,0,0,0,0,0,0,0,0,0,0,0,0,0,0,0,0,0,0,0,0,0,0,0,0,0,0,0,0,0,0,0,0,0,0,0,0,0,0,0,0,0,0,0,0,0,0,0,0,0,0,0,0,0,0,0,0,0,0,0,0,0,0,0,0,0,0,0,0,0,0,0,0,0,0,0,0,0,0,0,0,0,0,0,0,0,0,0,0,0,0,0,0,0,0,0,0,0,0,0,0],"id":9,"left_children":[1,3,5,7,9,11,13,15,17,19,21,23,25,27,29,31,33,35,37,39,41,43,45,47,49,51,53,55,57,59,61,63,-1,65,67,69,71,73,75,77,79,81,83,85,87,89,91,93,95,97,99,-1,-1,101,-1,103,105,107,109,111,113,115,117,-1,-1,-1,-1,-1,-1,-1,-1,-1,-1,-1,-1,-1,-1,-1,-1,-1,-1,-1,-1,-1,-1,-1,-1,-1,-1,-1,-1,-1,-1,-1,-1,-1,-1,-1,-1,-1,-1,-1,-1,-1,-1,-1,-1,-1,-1,-1,-1,-1,-1,-1,-1,-1,-1,-1,-1],"loss_changes":[2.1475214E2,2.649347E1,7.497211E1,1.3156111E1,1.5733276E1,7.182087E0,4.190335E1,3.0988722E0,8.066006E0,8.928497E0,6.9370365E0,7.7684183E0,1.8674774E0,2.890963E1,7.956834E0,3.2585087E0,2.760368E0,2.1773205E0,4.4669175E0,7.870533E0,4.4588013E0,5.3705025E0,6.7858086E0,4.27044E0,7.487782E0,1.6526796E0,7.3184586E-1,2.309542E1,1.6447845E1,3.3621254E0,5.22301E0,1.6996136E0,0E0,3.0142124E0,3.6628659E0,9.3414545E-1,3.041032E0,6.4355536E0,4.229609E0,4.2861443E0,3.3027382E0,3.5494232E0,7.490387E-1,2.5668516E0,2.9638786E0,4.02833E0,2.6682332E0,1.3250895E0,1.7431453E-1,2.1181622E0,1.1987567E1,0E0,0E0,1.7731476E-1,0E0,1.1329498E1,4.873994E0,4.4829254E0,9.183123E0,1.4222469E0,5.549449E0,2.226654E0,3.0719647E0,0E0,0E0,0E0,0E0,0E0,0E0,0E0,0E0,0E0,0E0,0E0,0E0,0E0,0E0,0E0,0E0,0E0,0E0,0E0,0E0,0E0,0E0,0E0,0E0,0E0,0E0,0E0,0E0,0E0,0E0,0E0,0E0,0E0,0E0,0E0,0E0,0E0,0E0,0E0,0E0,0E0,0E0,0E0,0E0,0E0,0E0,0E0,0E0,0E0,0E0,0E0,0E0,0E0,0E0,0E0,0E0],"parents":[2147483647,0,0,1,1,2,2,3,3,4,4,5,5,6,6,7,7,8,8,9,9,10,10,11,11,12,12,13,13,14,14,15,15,16,16,17,17,18,18,19,19,20,20,21,21,22,22,23,23,24,24,25,25,26,26,27,27,28,28,29,29,30,30,31,31,33,33,34,34,35,35,36,36,37,37,38,38,39,39,40,40,41,41,42,42,43,43,44,44,45,45,46,46,47,47,48,48,49,49,50,50,53,53,55,55,56,56,57,57,58,58,59,59,60,60,61,61,62,62],"right_children":[2,4,6,8,10,12,14,16,18,20,22,24,26,28,30,32,34,36,38,40,42,44,46,48,50,52,54,56,58,60,62,64,-1,66,68,70,72,74,76,78,80,82,84,86,88,90,92,94,96,98,100,-1,-1,102,-1,104,106,108,110,112,114,116,118,-1,-1,-1,-1,-1,-1,-1,-1,-1,-1,-1,-1,-1,-1,-1,-1,-1,-1,-1,-1,-1,-1,-1,-1,-1,-1,-1,-1,-1,-1,-1,-1,-1,-1,-1,-1,-1,-1,-1,-1,-1,-1,-1,-1,-1,-1,-1,-1,-1,-1,-1,-1,-1,-1,-1,-1],"split_conditions":[8.7E-1,1.3803261E1,5.16E0,6.91E0,7.265498E1,1.62E0,3.26E0,7E-3,2.4E-1,1.8432E0,3.995E0,1.7215E0,7.4330287E0,1.04126625E1,1.9120535E1,4.82E-1,1.3594E1,3.3E-1,-1.37E-1,-1.57E1,3.011E1,1.8337314E2,1.4908E0,4.6455E0,3.1339357E0,2.9E2,5.112214E1,1.1075563E2,-1.73E1,1E-3,4.381437E1,7.65E0,4.9879022E-2,4E-3,3.189E-2,8.5E-1,3.8E-1,1.404E1,3.6E-1,4.6E-1,-3.3E-1,1.5E2,3.706E-1,1E-3,-1.7E-4,1.5E-1,1.2551E1,1E0,-9.8E-1,1.5872E1,9.7E-2,5.9396673E-2,-4.7258332E-2,1E0,6.213263E-3,7.4E2,2.055E-1,3.4E-2,7.8E-1,1.110111E28,1.4E1,2.3E-1,9.1E-1,-6.440074E-2,2.1019313E-2,7.06852E-2,-4.5564905E-2,-4.93632E-2,8.4768124E-2,3.668919E-3,-5.8844574E-2,9.733597E-2,-3.6372386E-2,5.8104303E-2,-4.2100556E-2,7.371293E-2,-8.050772E-3,-5.0185323E-2,8.5098796E-2,-1.962359E-2,-4.8815947E-2,-4.6633065E-2,-6.1000645E-2,-6.783576E-2,5.884441E-3,-4.0756498E-2,8.5248165E-2,-6.369228E-2,1.4508533E-2,1.6922502E-2,-3.944191E-2,-4.234142E-2,9.130364E-2,2.879137E-3,1.1650091E-1,-1.6104231E-3,-4.702654E-2,-6.041617E-2,4.5286443E-2,-5.4317128E-2,1.11973874E-1,-6.788738E-2,-2.8497389E-2,7.74003E-2,-5.9046554E-3,-2.690565E-2,2.6972765E-2,7.5703144E-2,3.13467E-2,-2.3069011E-2,2.771081E-2,7.481649E-3,-6.770401E-2,-4.838597E-2,5.826078E-2,3.0444575E-2,-5.5526644E-2,1.0768246E-1,1.4993112E-2],"split_indices":[71,33,27,27,0,80,80,65,77,6,6,6,33,33,33,44,62,79,51,29,18,1,21,27,0,36,67,0,29,65,67,78,0,4,16,18,85,18,69,19,20,36,21,65,74,47,57,69,70,59,78,0,0,39,0,36,39,44,81,38,36,47,83,0,0,0,0,0,0,0,0,0,0,0,0,0,0,0,0,0,0,0,0,0,0,0,0,0,0,0,0,0,0,0,0,0,0,0,0,0,0,0,0,0,0,0,0,0,0,0,0,0,0,0,0,0,0,0,0],"split_type":[0,0,0,0,0,0,0,0,0,0,0,0,0,0,0,0,0,0,0,0,0,0,0,0,0,0,0,0,0,0,0,0,0,0,0,0,0,0,0,0,0,0,0,0,0,0,0,0,0,0,0,0,0,0,0,0,0,0,0,0,0,0,0,0,0,0,0,0,0,0,0,0,0,0,0,0,0,0,0,0,0,0,0,0,0,0,0,0,0,0,0,0,0,0,0,0,0,0,0,0,0,0,0,0,0,0,0,0,0,0,0,0,0,0,0,0,0,0,0],"sum_hessian":[2.5661296E3,1.6709991E3,8.9513055E2,2.1475288E2,1.4562463E3,1.6078111E2,7.343494E2,8.177402E1,1.3297887E2,1.2411448E3,2.1510149E2,6.639394E1,9.438717E1,6.385578E2,9.579161E1,5.556667E1,2.6207348E1,2.796713E1,1.05011734E2,1.7761105E2,1.0635337E3,3.1257694E1,1.838438E2,9.877201E0,5.6516743E1,3.8291109E0,9.055806E1,3.4433014E2,2.942277E2,6.840529E1,2.7386322E1,5.349679E1,2.0698786E0,1.93288E1,6.878546E0,2.2679026E1,5.2881045E0,4.7418266E1,5.759347E1,1.0017361E1,1.6759369E2,7.614476E2,3.0208618E2,1.1788181E1,1.9469515E1,1.7730783E2,6.535955E0,6.80694E0,3.070261E0,4.100053E1,1.55162115E1,1.78244E0,2.046671E0,8.9329926E1,1.2281389E0,2.7214972E2,7.218043E1,1.3684743E2,1.5738025E2,4.8012733E1,2.0392557E1,1.2837394E1,1.4548928E1,5.1507347E1,1.9894443E0,1.6305683E0,1.7698233E1,2.4266155E0,4.451931E0,2.5677686E0,2.0111258E1,1.7571167E0,3.5309877E0,4.0586647E1,6.83162E0,6.1962123E0,5.139726E1,2.470396E0,7.546965E0,6.541225E1,1.0218144E2,4.4550467E2,3.159429E2,3.0085553E2,1.2306318E0,1.2739437E0,1.0514237E1,6.481637E0,1.2987877E1,1.3190221E1,1.6411761E2,1.3131902E0,5.2227645E0,1.2790745E0,5.5278654E0,1.3272942E0,1.7429669E0,3.9707504E1,1.2930264E0,8.411537E0,7.1046734E0,8.614999E1,3.179937E0,2.5485712E2,1.7292582E1,2.4758305E1,4.7422127E1,2.9225294E1,1.0762213E2,1.0461924E2,5.2761013E1,2.4605703E0,4.5552162E1,1.4158269E1,6.234288E0,3.5074089E0,9.329985E0,5.2261386E0,9.32279E0],"tree_param":{"num_deleted":"0","num_feature":"88","num_nodes":"119","size_leaf_vector":"1"}},{"base_weights":[-8.398975E-2,-3.6576402E-1,5.248521E-1,-7.199281E-2,-5.778792E-1,-4.802262E-1,6.95552E-1,-5.9388614E-1,3.9222053E-1,-4.7048634E-1,-6.541181E-1,-6.3852125E-1,-2.906006E-1,8.1967753E-1,-4.9334976E-1,-6.119356E-1,8.674945E-2,-6.37463E-1,6.071345E-1,-3.4330878E-1,-6.472537E-1,-4.7349992E-1,-6.644449E-1,-6.68112E-1,4.4861745E-2,-6.018866E-1,-5.8395334E-4,9.119683E-1,-2.579947E-2,1.1834102E-1,-6.361279E-1,-6.386113E-1,-1.3072932E-1,-6.654679E-1,3.0172974E-2,7.126034E-1,-3.1431773E-1,-5.437798E-1,-7.865564E-2,-6.5753555E-1,5.0029196E-2,5.060595E-2,-5.2296126E-1,-6.660834E-1,-1.3863931E-2,-6.828576E-2,-8.641768E-3,-6.719205E-2,-6.756915E-2,3.5941425E-1,-5.021331E-1,9.457782E-1,2.620292E-1,-5.337467E-1,6.086472E-1,6.392479E-1,-5.8788974E-2,-6.697024E-2,3.6989477E-2,-4.894833E-2,-6.6291094E-2,4.3748524E-2,-4.318739E-2,-4.1943244E-3,-6.8015024E-2,7.830095E-2,-4.495832E-2,2.2036683E-2,-5.3988803E-2,2.377618E-3,-6.2070955E-2,-5.9797585E-2,2.0004103E-2,-4.0078513E-2,-6.7737505E-2,4.652859E-2,-3.9405886E-2,4.9283337E-2,-5.7579815E-2,-6.677179E-2,-1.4848749E-2,-4.6305776E-2,4.9013704E-2,-2.9864538E-2,6.674585E-2,4.183954E-2,-6.4324886E-2,-1.0971579E-2,9.5649645E-2,-6.493546E-2,4.557297E-2,-6.231841E-2,-8.73837E-3,-4.756135E-2,8.553504E-2,-4.6357505E-2,9.899639E-2],"categories":[],"categories_nodes":[],"categories_segments":[],"categories_sizes":[],"default_left":[0,0,0,0,0,0,0,0,0,0,0,0,0,0,0,0,0,0,0,0,0,0,0,0,0,0,0,0,0,0,0,0,0,0,0,0,0,0,0,0,0,0,0,0,0,0,0,0,0,0,0,0,0,0,0,0,0,0,0,0,0,0,0,0,0,0,0,0,0,0,0,0,0,0,0,0,0,0,0,0,0,0,0,0,0,0,0,0,0,0,0,0,0,0,0,0,0],"id":10,"left_children":[1,3,5,7,9,11,13,15,17,19,21,23,25,27,29,31,-1,33,35,37,39,41,43,45,-1,47,49,51,53,55,57,59,61,63,-1,65,67,69,71,73,75,-1,77,79,-1,-1,-1,-1,81,83,85,87,89,91,93,95,-1,-1,-1,-1,-1,-1,-1,-1,-1,-1,-1,-1,-1,-1,-1,-1,-1,-1,-1,-1,-1,-1,-1,-1,-1,-1,-1,-1,-1,-1,-1,-1,-1,-1,-1,-1,-1,-1,-1,-1,-1],"loss_changes":[4.4392734E2,1.10177734E2,1.4080287E2,1.8018771E2,8.100861E0,3.4001503E0,1.0374756E2,9.764626E0,8.7514496E1,9.443367E0,8.0088806E-1,2.367302E0,5.0719295E0,4.9530304E1,5.911501E0,4.3628693E0,0E0,2.0018063E0,3.192994E1,1.3336542E1,1.3145676E0,2.00035E0,3.928833E-1,4.8111343E-1,0E0,9.6861076E-1,5.612919E0,1.232251E1,2.0760717E1,5.338258E0,2.0829964E0,8.638611E-1,3.5172255E0,5.8304405E-1,0E0,2.433043E1,4.243869E0,6.2723083E0,1.6019775E1,6.262665E-1,8.337787E-1,0E0,2.1404896E0,3.7565613E-1,0E0,0E0,0E0,0E0,1.1648061E0,3.8680177E0,1.956434E0,6.2522583E0,5.533683E0,1.3727493E0,8.073857E0,3.6468642E0,0E0,0E0,0E0,0E0,0E0,0E0,0E0,0E0,0E0,0E0,0E0,0E0,0E0,0E0,0E0,0E0,0E0,0E0,0E0,0E0,0E0,0E0,0E0,0E0,0E0,0E0,0E0,0E0,0E0,0E0,0E0,0E0,0E0,0E0,0E0,0E0,0E0,0E0,0E0,0E0,0E0],"parents":[2147483647,0,0,1,1,2,2,3,3,4,4,5,5,6,6,7,7,8,8,9,9,10,10,11,11,12,12,13,13,14,14,15,15,17,17,18,18,19,19,20,20,21,21,22,22,23,23,25,25,26,26,27,27,28,28,29,29,30,30,31,31,32,32,33,33,35,35,36,36,37,37,38,38,39,39,40,40,42,42,43,43,48,48,49,49,50,50,51,51,52,52,53,53,54,54,55,55],"right_children":[2,4,6,8,10,12,14,16,18,20,22,24,26,28,30,32,-1,34,36,38,40,42,44,46,-1,48,50,52,54,56,58,60,62,64,-1,66,68,70,72,74,76,-1,78,80,-1,-1,-1,-1,82,84,86,88,90,92,94,96,-1,-1,-1,-1,-1,-1,-1,-1,-1,-1,-1,-1,-1,-1,-1,-1,-1,-1,-1,-1,-1,-1,-1,-1,-1,-1,-1,-1,-1,-1,-1,-1,-1,-1,-1,-1,-1,-1,-1,-1,-1],"split_conditions":[-1.5E-1,6.1E-1,1.04126625E1,-1.01E0,1.3E0,8.862663E0,1.344E1,4E-1,1.0215344E1,3.23E-1,1.35E0,1.5896E1,1.3576776E2,1.35E0,3.08E-4,2E0,8.674945E-2,3E0,2.92E-1,-2.9E-1,3.0034525E2,-5.8E-1,2.1714E3,5.026513E1,4.4861745E-2,7.6E-1,-8E1,1.356E2,2E0,6.7E-4,3E0,1.472E1,-1.1063E-1,-6.85E-1,3.0172974E-2,9.7E-4,7.85E-4,-4.42E-1,1.05991125E1,2.96E-4,2.037E-3,5.060595E-2,2.8329706E2,4.6E-1,-1.3863931E-2,-6.828576E-2,-8.641768E-3,-6.719205E-2,7.58E0,-1.38E-1,2.3E-1,-9.22E-3,7.7E1,8.855785E0,-2.6661E2,-6.1E-2,-5.8788974E-2,-6.697024E-2,3.6989477E-2,-4.894833E-2,-6.6291094E-2,4.3748524E-2,-4.318739E-2,-4.1943244E-3,-6.8015024E-2,7.830095E-2,-4.495832E-2,2.2036683E-2,-5.3988803E-2,2.377618E-3,-6.2070955E-2,-5.9797585E-2,2.0004103E-2,-4.0078513E-2,-6.7737505E-2,4.652859E-2,-3.9405886E-2,4.9283337E-2,-5.7579815E-2,-6.677179E-2,-1.4848749E-2,-4.6305776E-2,4.9013704E-2,-2.9864538E-2,6.674585E-2,4.183954E-2,-6.4324886E-2,-1.0971579E-2,9.5649645E-2,-6.493546E-2,4.557297E-2,-6.231841E-2,-8.73837E-3,-4.756135E-2,8.553504E-2,-4.6357505E-2,9.899639E-2],"split_indices":[48,80,33,20,86,33,18,46,33,7,80,57,1,80,13,35,0,35,7,20,55,46,34,56,0,82,42,27,35,73,35,18,17,5,0,73,13,5,33,13,13,0,55,46,0,0,0,0,27,76,80,14,41,32,26,82,0,0,0,0,0,0,0,0,0,0,0,0,0,0,0,0,0,0,0,0,0,0,0,0,0,0,0,0,0,0,0,0,0,0,0,0,0,0,0,0,0],"split_type":[0,0,0,0,0,0,0,0,0,0,0,0,0,0,0,0,0,0,0,0,0,0,0,0,0,0,0,0,0,0,0,0,0,0,0,0,0,0,0,0,0,0,0,0,0,0,0,0,0,0,0,0,0,0,0,0,0,0,0,0,0,0,0,0,0,0,0,0,0,0,0,0,0,0,0,0,0,0,0,0,0,0,0,0,0,0,0,0,0,0,0,0,0,0,0,0,0],"sum_hessian":[2.5855342E3,1.7677925E3,8.1774164E2,7.417865E2,1.0260059E3,1.1845677E2,6.992849E2,3.4906723E2,3.9271927E2,4.2894717E2,5.970588E2,6.3271725E1,5.518505E1,6.3346E2,6.582489E1,3.453827E2,3.6845546E0,6.747428E1,3.25245E2,2.5117686E2,1.777703E2,3.4824314E1,5.6223444E2,6.1970398E1,1.3013268E0,2.6097864E1,2.9087187E1,5.710469E2,6.24131E1,1.2489303E1,5.3335587E1,3.2693207E2,1.8450615E1,6.580359E1,1.6706922E0,2.9204443E2,3.3200573E1,1.4231818E2,1.0885869E2,1.7524323E2,2.5270689E0,1.2301592E0,3.3594154E1,5.602219E2,2.0124977E0,6.0268707E1,1.7016903E0,2.2845882E1,3.2519813E0,1.709806E1,1.1989126E1,5.423772E2,2.8669683E1,3.475026E1,2.766284E1,7.242311E0,5.2469916E0,5.193659E1,1.3989978E0,4.8770256E1,2.781618E2,6.2344337E0,1.2216181E1,1.6025724E0,6.420101E1,2.7567035E2,1.6374063E1,9.857572E0,2.3343002E1,1.7070444E1,1.25247734E2,3.761734E1,7.124135E1,1.4090712E1,1.6115251E2,1.2812591E0,1.2458098E0,1.2492746E0,3.234488E1,5.5816925E2,2.0526612E0,2.0020027E0,1.2499785E0,5.4614806E0,1.16365795E1,1.3324382E0,1.0656689E1,5.3594823E0,5.370177E2,4.6129313E0,2.4056751E1,2.8619633E1,6.130628E0,4.9555063E0,2.2707335E1,1.669811E0,5.5725E0],"tree_param":{"num_deleted":"0","num_feature":"88","num_nodes":"97","size_leaf_vector":"1"}},{"base_weights":[3.041632E-1,7.604035E-2,9.511601E-1,-2.0479591E-1,7.285659E-1,6.0979444E-1,9.985926E-1,-5.613065E-1,3.747998E-2,9.8527396E-1,4.7435555E-1,8.295254E-1,2.660371E-1,5.359653E-1,1.014661E0,9.270922E-2,-5.9308225E-1,-2.50071E-1,2.9957592E-1,3.539033E-2,9.989796E-1,1.7997907E-1,8.154613E-1,-9.72032E-2,8.823926E-1,-7.04598E-2,8.102998E-1,9.2543614E-1,-1.8247838E-1,7.695247E-1,1.0267867E0,-6.340987E-2,4.3460384E-1,-6.146902E-1,2.739966E-1,6.570867E-1,-3.3933115E-1,9.011E-1,2.9167768E-2,-5.922612E-2,7.3942386E-2,1.0284132E0,6.0879254E-1,-3.834837E-1,2.8640854E-1,9.5198023E-1,4.0770903E-1,-4.8979253E-2,3.396515E-2,9.26161E-1,-1.8469099E-2,7.62287E-2,-2.4379434E-1,-4.4931814E-2,9.8159087E-1,1.03300534E-1,-7.3010223E-3,-6.6664875E-2,4.9538597E-1,9.085077E-1,2.1936911E-1,2.893554E-2,1.0281601E0,-1.7177094E-2,8.104237E-2,-6.2640555E-2,5.4052364E-2,6.6623464E-2,-3.1682648E-2,7.381637E-2,-3.6954682E-3,9.8096905E-3,-4.5605328E-2,9.453859E-2,-4.3217618E-2,7.90562E-2,-1.0240794E-2,1.3274573E-2,1.0341358E-1,9.754531E-2,-6.5787435E-3,3.4064624E-2,-6.112497E-2,1.0012881E-2,5.342669E-2,1.01212285E-1,4.4775004E-3,-5.9391577E-2,5.4192174E-2,1.0003592E-1,4.478137E-2,4.0206365E-2,-4.1450415E-2,3.1727165E-2,1.03664994E-1,7.634112E-2,-4.8092916E-3,9.713759E-2,9.503751E-3,6.6237025E-2,-2.6820837E-2,1.02952495E-1,2.9322688E-2],"categories":[],"categories_nodes":[],"categories_segments":[],"categories_sizes":[],"default_left":[0,0,0,0,0,0,0,0,0,0,0,0,0,0,0,0,0,0,0,0,0,0,0,0,0,0,0,0,0,0,0,0,0,0,0,0,0,0,0,0,0,0,0,0,0,0,0,0,0,0,0,0,0,0,0,0,0,0,0,0,0,0,0,0,0,0,0,0,0,0,0,0,0,0,0,0,0,0,0,0,0,0,0,0,0,0,0,0,0,0,0,0,0,0,0,0,0,0,0,0,0,0,0],"id":11,"left_children":[1,3,5,7,9,11,13,15,17,19,21,23,25,27,29,31,33,35,37,39,41,43,45,47,49,51,53,55,57,59,61,-1,63,65,67,69,71,73,75,-1,-1,77,79,81,83,85,87,-1,-1,89,-1,-1,91,-1,93,-1,-1,-1,95,97,99,-1,101,-1,-1,-1,-1,-1,-1,-1,-1,-1,-1,-1,-1,-1,-1,-1,-1,-1,-1,-1,-1,-1,-1,-1,-1,-1,-1,-1,-1,-1,-1,-1,-1,-1,-1,-1,-1,-1,-1,-1,-1],"loss_changes":[4.0741803E2,3.7440015E2,1.1042847E1,1.2341095E2,3.964734E1,6.6045E0,4.1411743E0,1.206839E1,6.424772E1,3.9344177E0,3.1060364E1,2.76334E0,6.7797823E0,6.6815314E0,1.0170898E0,7.146251E0,1.0499802E1,3.3144157E1,7.250462E1,2.8125625E0,2.8255615E0,1.0190804E1,7.6101303E0,8.2668996E-1,2.5904121E0,3.5928183E0,3.4841795E0,1.7141361E0,3.289741E0,2.2969856E0,2.8619385E-1,0E0,4.559618E0,7.6241302E0,3.4784863E0,2.0958748E0,1.8977287E1,8.57193E0,3.1002594E1,0E0,0E0,1.2877502E0,5.8847227E0,4.683652E0,6.5013056E0,5.7870026E0,5.401863E0,0E0,0E0,1.3240433E0,0E0,0E0,2.4041986E0,0E0,1.3671589E-1,0E0,0E0,0E0,6.6756725E-1,1.2243061E0,1.8845749E0,0E0,2.7478027E-1,0E0,0E0,0E0,0E0,0E0,0E0,0E0,0E0,0E0,0E0,0E0,0E0,0E0,0E0,0E0,0E0,0E0,0E0,0E0,0E0,0E0,0E0,0E0,0E0,0E0,0E0,0E0,0E0,0E0,0E0,0E0,0E0,0E0,0E0,0E0,0E0,0E0,0E0,0E0,0E0],"parents":[2147483647,0,0,1,1,2,2,3,3,4,4,5,5,6,6,7,7,8,8,9,9,10,10,11,11,12,12,13,13,14,14,15,15,16,16,17,17,18,18,19,19,20,20,21,21,22,22,23,23,24,24,25,25,26,26,27,27,28,28,29,29,30,30,32,32,33,33,34,34,35,35,36,36,37,37,38,38,41,41,42,42,43,43,44,44,45,45,46,46,49,49,52,52,54,54,58,58,59,59,60,60,62,62],"right_children":[2,4,6,8,10,12,14,16,18,20,22,24,26,28,30,32,34,36,38,40,42,44,46,48,50,52,54,56,58,60,62,-1,64,66,68,70,72,74,76,-1,-1,78,80,82,84,86,88,-1,-1,90,-1,-1,92,-1,94,-1,-1,-1,96,98,100,-1,102,-1,-1,-1,-1,-1,-1,-1,-1,-1,-1,-1,-1,-1,-1,-1,-1,-1,-1,-1,-1,-1,-1,-1,-1,-1,-1,-1,-1,-1,-1,-1,-1,-1,-1,-1,-1,-1,-1,-1,-1],"split_conditions":[1.472E1,1.6E0,2.28E1,1.27E2,9.42E0,3.8E-1,8.0621E-2,4.24E0,5.83E-1,4.8E1,3.23E0,8.5E-2,2.1E0,5.0492958E1,1.7215E0,-5.27E-1,8.88E-1,2.96E0,5.9E-1,6.1E-1,2E0,3.6996E0,1.2E0,-6.74E-1,5.2547375E2,1.1E-4,-2.18E-1,2.2E-1,2.922946E2,1.5E-1,2.08E2,-6.340987E-2,5.6E-1,1.7E2,3.92E0,-1.51E2,1.4053E1,4.8591275E2,4.06E0,-5.922612E-2,7.3942386E-2,7.3129215E0,2.1E0,7.5261946E0,3.952E2,2.3E0,4.7E0,-4.8979253E-2,3.396515E-2,2.8E-1,-1.8469099E-2,7.62287E-2,5E0,-4.4931814E-2,8.01E-1,1.03300534E-1,-7.3010223E-3,-6.6664875E-2,1E-2,-3.5E-2,-1.2E-1,2.893554E-2,-2.7E-2,-1.7177094E-2,8.104237E-2,-6.2640555E-2,5.4052364E-2,6.6623464E-2,-3.1682648E-2,7.381637E-2,-3.6954682E-3,9.8096905E-3,-4.5605328E-2,9.453859E-2,-4.3217618E-2,7.90562E-2,-1.0240794E-2,1.3274573E-2,1.0341358E-1,9.754531E-2,-6.5787435E-3,3.4064624E-2,-6.112497E-2,1.0012881E-2,5.342669E-2,1.01212285E-1,4.4775004E-3,-5.9391577E-2,5.4192174E-2,1.0003592E-1,4.478137E-2,4.0206365E-2,-4.1450415E-2,3.1727165E-2,1.03664994E-1,7.634112E-2,-4.8092916E-3,9.713759E-2,9.503751E-3,6.6237025E-2,-2.6820837E-2,1.02952495E-1,2.9322688E-2],"split_indices":[18,86,34,41,27,81,12,27,86,36,86,86,86,33,6,5,7,27,86,19,35,32,87,5,16,75,45,46,55,79,23,0,86,28,25,42,57,0,27,0,0,33,28,33,9,7,10,0,0,83,0,0,36,0,52,0,0,0,70,45,5,0,51,0,0,0,0,0,0,0,0,0,0,0,0,0,0,0,0,0,0,0,0,0,0,0,0,0,0,0,0,0,0,0,0,0,0,0,0,0,0,0,0],"split_type":[0,0,0,0,0,0,0,0,0,0,0,0,0,0,0,0,0,0,0,0,0,0,0,0,0,0,0,0,0,0,0,0,0,0,0,0,0,0,0,0,0,0,0,0,0,0,0,0,0,0,0,0,0,0,0,0,0,0,0,0,0,0,0,0,0,0,0,0,0,0,0,0,0,0,0,0,0,0,0,0,0,0,0,0,0,0,0,0,0,0,0,0,0,0,0,0,0,0,0,0,0,0,0],"sum_hessian":[2.7598726E3,2.0412659E3,7.1860675E2,1.4275555E3,6.137103E2,8.935893E1,6.292478E2,5.7707263E2,8.504829E2,3.039241E2,3.097862E2,5.3651554E1,3.570738E1,2.2275055E1,6.069728E2,2.6649488E1,5.5042316E2,4.055697E2,4.4491318E2,4.3738317E0,2.9955026E2,1.6710292E2,1.4268329E2,2.8502274E0,5.0801327E1,2.2603214E1,1.3104166E1,1.4257761E1,8.017294E0,3.1647276E1,5.753255E2,8.252168E0,1.8397322E1,5.3732385E2,1.3099248E1,3.5761494E1,3.698082E2,1.3725546E2,3.076577E2,2.3962846E0,1.9775473E0,2.7701788E2,2.2532408E1,2.6134981E1,1.4096794E2,1.05894264E2,3.678902E1,1.4373451E0,1.4128822E0,4.8926575E1,1.8747507E0,3.3088431E0,1.929437E1,1.3743706E0,1.1729795E1,1.28398285E1,1.417932E0,4.6864805E0,3.3308132E0,2.4744766E1,6.9025106E0,1.4630256E0,5.738625E2,7.2471657E0,1.1150155E1,5.3238257E2,4.941294E0,7.7959814E0,5.303266E0,3.1963938E1,3.797557E0,7.7927284E1,2.9188092E2,1.3312454E2,4.130923E0,4.4594215E1,2.630635E2,1.9123137E0,2.7510556E2,1.430893E1,8.223476E0,6.134893E0,2.0000088E1,8.128305E1,5.9684887E1,9.920208E1,6.692187E0,3.9423342E0,3.2846684E1,4.1411766E1,7.5148087E0,3.7503128E0,1.5544059E1,1.4153368E0,1.0314458E1,1.9596875E0,1.3711258E0,2.2789398E1,1.955368E0,3.428744E0,3.4737666E0,5.723987E2,1.4637904E0],"tree_param":{"num_deleted":"0","num_feature":"88","num_nodes":"103","size_leaf_vector":"1"}},{"base_weights":[-2.2418168E-1,1.708677E-1,-4.719777E-1,2.6964712E-1,-3.9466873E-1,-5.1959586E-1,-2.4948674E-1,-1.3017903E-1,3.7768993E-1,-5.393445E-1,-2.1017192E-2,-3.131694E-1,-5.573458E-1,-3.5188898E-1,3.4304246E-2,-3.0908376E-1,2.0162857E-1,4.476701E-1,-2.1216232E-1,-5.8417976E-1,-5.3721555E-3,6.908735E-1,-2.0365003E-1,-3.4349263E-1,4.1652983E-1,-6.1980313E-1,-4.938073E-1,-4.0189028E-1,1.4550385E-1,-1.01994485E-1,9.417499E-1,1.662025E-2,-4.667491E-1,-1.5559006E-2,6.0631406E-1,2.054008E-1,5.237805E-1,3.4256965E-1,-5.6268185E-1,-6.016073E-1,2.0977484E-2,-3.9540485E-1,4.4748634E-1,-4.2500857E-2,1.0000867E0,-3.073853E-1,6.856225E-2,1.255466E-1,-3.713942E-1,-3.5310888E-1,1.1115813E-1,3.816133E-2,-6.233787E-1,-5.656752E-1,-3.5519534E-1,-3.136443E-1,-6.198655E-1,4.659321E-1,-5.8732964E-2,-2.47166E-1,6.2279373E-1,-7.4363165E-3,1.16183154E-1,1.0009917E-1,-1.2591826E-2,-2.4757823E-2,-6.482884E-2,4.691915E-2,-1.7037775E-2,-3.2111134E-2,7.545932E-2,3.1914671E-3,4.894868E-2,6.0303427E-2,9.7774295E-3,-2.0647028E-2,7.9185665E-2,-2.1970347E-2,-6.377856E-2,1.4566831E-2,-6.2012143E-2,2.4332767E-3,-5.265637E-2,-1.4376181E-2,8.65191E-2,1.09449305E-1,3.5912696E-2,-3.8559712E-2,7.771305E-2,6.729738E-2,-4.3164432E-2,-3.9395016E-2,2.3446085E-2,4.5734723E-3,-5.0782066E-2,-6.28301E-2,-2.511247E-2,3.466467E-2,-5.7082213E-2,-5.814469E-2,-2.7541116E-2,-1.709797E-2,-6.385731E-2,7.733238E-3,-6.560808E-2,-5.0068658E-2,7.490671E-2,5.3925604E-2,-3.2436516E-2,-8.148336E-3,9.0373814E-2],"categories":[],"categories_nodes":[],"categories_segments":[],"categories_sizes":[],"default_left":[0,0,0,0,0,0,0,0,0,0,0,0,0,0,0,0,0,0,0,0,0,0,0,0,0,0,0,0,0,0,0,0,0,0,0,0,0,0,0,0,0,0,0,0,0,0,0,0,0,0,0,0,0,0,0,0,0,0,0,0,0,0,0,0,0,0,0,0,0,0,0,0,0,0,0,0,0,0,0,0,0,0,0,0,0,0,0,0,0,0,0,0,0,0,0,0,0,0,0,0,0,0,0,0,0,0,0,0,0,0,0],"id":12,"left_children":[1,3,5,7,9,11,13,15,17,19,21,23,25,27,29,31,33,35,37,39,41,43,45,47,49,51,53,55,57,59,61,63,65,67,69,71,73,75,77,79,-1,81,83,-1,85,87,-1,89,91,93,-1,-1,95,97,99,101,103,105,-1,107,109,-1,-1,-1,-1,-1,-1,-1,-1,-1,-1,-1,-1,-1,-1,-1,-1,-1,-1,-1,-1,-1,-1,-1,-1,-1,-1,-1,-1,-1,-1,-1,-1,-1,-1,-1,-1,-1,-1,-1,-1,-1,-1,-1,-1,-1,-1,-1,-1,-1,-1],"loss_changes":[2.4587183E2,5.421483E1,1.6220642E1,3.5694565E1,7.7962055E0,9.724152E0,7.9744205E0,1.0526972E1,2.6920334E1,2.4884949E0,5.517242E0,4.5389767E0,3.950531E0,5.068037E0,9.19442E0,5.909499E0,5.4903107E0,1.061055E1,1.3726508E1,1.4545784E0,1.7791557E0,3.4168286E0,3.3179426E0,2.550024E0,4.8744287E0,2.1606598E0,5.144745E0,3.3313274E0,4.7665787E0,6.978172E0,2.2564497E0,5.521331E0,2.92206E0,3.1985862E0,3.2406998E0,6.9138813E0,1.4852913E1,6.96486E0,9.6828747E-1,1.3936043E0,0E0,3.10342E-1,1.2768719E0,0E0,3.58119E-2,2.9167945E0,0E0,3.7944643E0,2.5631466E0,3.1538856E-1,0E0,0E0,8.23349E-1,1.8493652E0,3.1958733E0,6.032832E0,1.3585644E0,4.171093E0,0E0,3.498893E0,2.2713046E0,0E0,0E0,0E0,0E0,0E0,0E0,0E0,0E0,0E0,0E0,0E0,0E0,0E0,0E0,0E0,0E0,0E0,0E0,0E0,0E0,0E0,0E0,0E0,0E0,0E0,0E0,0E0,0E0,0E0,0E0,0E0,0E0,0E0,0E0,0E0,0E0,0E0,0E0,0E0,0E0,0E0,0E0,0E0,0E0,0E0,0E0,0E0,0E0,0E0,0E0],"parents":[2147483647,0,0,1,1,2,2,3,3,4,4,5,5,6,6,7,7,8,8,9,9,10,10,11,11,12,12,13,13,14,14,15,15,16,16,17,17,18,18,19,19,20,20,21,21,22,22,23,23,24,24,25,25,26,26,27,27,28,28,29,29,30,30,31,31,32,32,33,33,34,34,35,35,36,36,37,37,38,38,39,39,41,41,42,42,44,44,45,45,47,47,48,48,49,49,52,52,53,53,54,54,55,55,56,56,57,57,59,59,60,60],"right_children":[2,4,6,8,10,12,14,16,18,20,22,24,26,28,30,32,34,36,38,40,42,44,46,48,50,52,54,56,58,60,62,64,66,68,70,72,74,76,78,80,-1,82,84,-1,86,88,-1,90,92,94,-1,-1,96,98,100,102,104,106,-1,108,110,-1,-1,-1,-1,-1,-1,-1,-1,-1,-1,-1,-1,-1,-1,-1,-1,-1,-1,-1,-1,-1,-1,-1,-1,-1,-1,-1,-1,-1,-1,-1,-1,-1,-1,-1,-1,-1,-1,-1,-1,-1,-1,-1,-1,-1,-1,-1,-1,-1,-1],"split_conditions":[1.59E1,3.33E0,4.5433376E1,3.6E-1,3.93E1,1.8432E0,2.9E1,3.2E-4,5.75E2,2E0,-2.81E-1,1.57E1,7.17E-2,1.6454E1,4.8123535E1,8.8E0,2.6E-1,3.38E0,1.7215E0,3.5454498E2,4.9E-1,2.3E-4,-5.5E-2,7.466E-1,2.1E-1,-1.6E0,2.6E-1,2E0,1.09E-1,8.975E1,1.8E-1,-1.143E0,4.42E0,-4.75E-3,8.891E1,4.516635E1,1.36E1,-8E-2,3.3337746E0,2.2E-2,2.0977484E-2,6.16E-4,2.9020575E2,-4.2500857E-2,4.55E-1,2.01E-1,6.856225E-2,3.633E2,1.5491E1,3.92E2,1.1115813E-1,3.816133E-2,-6.5E1,9.105E0,8.298E-2,3.118E1,-1.28E-3,6.570453E1,-5.8732964E-2,1.4E-4,5.1E-2,-7.4363165E-3,1.16183154E-1,1.0009917E-1,-1.2591826E-2,-2.4757823E-2,-6.482884E-2,4.691915E-2,-1.7037775E-2,-3.2111134E-2,7.545932E-2,3.1914671E-3,4.894868E-2,6.0303427E-2,9.7774295E-3,-2.0647028E-2,7.9185665E-2,-2.1970347E-2,-6.377856E-2,1.4566831E-2,-6.2012143E-2,2.4332767E-3,-5.265637E-2,-1.4376181E-2,8.65191E-2,1.09449305E-1,3.5912696E-2,-3.8559712E-2,7.771305E-2,6.729738E-2,-4.3164432E-2,-3.9395016E-2,2.3446085E-2,4.5734723E-3,-5.0782066E-2,-6.28301E-2,-2.511247E-2,3.466467E-2,-5.7082213E-2,-5.814469E-2,-2.7541116E-2,-1.709797E-2,-6.385731E-2,7.733238E-3,-6.560808E-2,-5.0068658E-2,7.490671E-2,5.3925604E-2,-3.2436516E-2,-8.148336E-3,9.0373814E-2],"split_indices":[34,80,0,87,10,6,36,75,36,35,45,28,21,58,67,34,83,25,6,1,81,75,51,6,47,46,77,35,82,22,77,51,43,14,22,67,34,46,32,44,0,13,55,0,3,44,0,9,61,23,0,0,42,63,16,18,72,0,0,75,4,0,0,0,0,0,0,0,0,0,0,0,0,0,0,0,0,0,0,0,0,0,0,0,0,0,0,0,0,0,0,0,0,0,0,0,0,0,0,0,0,0,0,0,0,0,0,0,0,0,0],"split_type":[0,0,0,0,0,0,0,0,0,0,0,0,0,0,0,0,0,0,0,0,0,0,0,0,0,0,0,0,0,0,0,0,0,0,0,0,0,0,0,0,0,0,0,0,0,0,0,0,0,0,0,0,0,0,0,0,0,0,0,0,0,0,0,0,0,0,0,0,0,0,0,0,0,0,0,0,0,0,0,0,0,0,0,0,0,0,0,0,0,0,0,0,0,0,0,0,0,0,0,0,0,0,0,0,0,0,0,0,0,0,0],"sum_hessian":[2.5098484E3,9.675848E2,1.5422637E3,8.241566E2,1.4342812E2,1.2692745E3,2.729891E2,1.7528549E2,6.4887115E2,1.0307473E2,4.0353394E1,1.9766835E2,1.0716062E3,2.0042752E2,7.256158E1,1.1392673E2,6.135877E1,5.80269E2,6.860216E1,9.500367E1,8.071058E0,7.6706915E0,3.26827E1,1.9028996E2,7.3783817E0,5.3598615E2,5.3562006E2,1.822941E2,1.8133434E1,6.3857723E1,8.7038555E0,3.7452393E1,7.6474335E1,4.0555107E1,2.0803661E1,1.3960072E2,4.4066827E2,2.6572004E1,4.203015E1,9.320016E1,1.8035108E0,4.4044843E0,3.6665738E0,1.5831109E0,6.0875807E0,2.9854464E1,2.828237E0,1.0487649E1,1.7980232E2,3.7347817E0,3.6436002E0,1.5307999E0,5.344554E2,3.507047E2,1.8491536E2,1.3149715E2,5.0796944E1,1.28702E1,5.263234E0,5.37507E1,1.0107019E1,1.6674373E0,7.036418E0,3.9754329E0,3.347696E1,3.5717125E1,4.0757206E1,9.325523E0,3.1229584E1,2.706985E0,1.8096676E1,8.736243E1,5.2238297E1,3.7119586E2,6.94724E1,1.2201687E1,1.4370317E1,8.255379E0,3.3774773E1,2.087205E0,9.111295E1,1.2425443E0,3.1619399E0,1.789467E0,1.8771068E0,4.6893115E0,1.3982689E0,2.8447382E1,1.4070821E0,5.185358E0,5.302291E0,1.7368576E2,6.1165524E0,1.2406921E0,2.4940896E0,5.2680176E2,7.6536098E0,1.595211E0,3.491095E2,4.6568607E1,1.3834676E2,9.243739E1,3.9059753E1,2.4522395E0,4.8344704E1,2.741702E0,1.0128498E1,4.269757E0,4.9480946E1,3.0845568E0,7.022463E0],"tree_param":{"num_deleted":"0","num_feature":"88","num_nodes":"111","size_leaf_vector":"1"}},{"base_weights":[-8.515256E-2,-3.0612102E-1,5.2717924E-1,-9.915604E-3,-5.5016875E-1,-2.64424E-1,7.3029935E-1,-6.069744E-1,3.5690656E-1,-4.1291338E-1,-6.3115716E-1,1.1833642E-1,-4.1845426E-1,8.2208145E-1,-3.186409E-1,-3.5151166E-1,-6.5227354E-1,-6.11735E-1,5.233291E-1,-2.5398025E-1,-6.230924E-1,3.802277E-2,-6.352787E-1,-3.108612E-1,6.3267434E-1,-5.138705E-1,-6.258783E-2,8.646175E-1,-5.233242E-1,-5.400149E-1,8.659162E-2,2.9847625E-1,-6.0113114E-1,-6.589357E-2,-2.543217E-1,-6.685337E-2,-1.5573551E-1,6.010486E-1,-3.904443E-1,-4.8930615E-1,4.8768327E-2,2.1124776E-1,-6.396641E-1,-4.6034625E-1,-6.4614826E-1,-5.044309E-1,8.6740315E-2,8.0055565E-1,-4.8616406E-2,-1.9674756E-1,-5.788657E-1,4.7859076E-1,-3.68928E-1,9.6438813E-1,5.3205913E-1,3.5652768E-2,-6.321493E-2,-6.0699445E-1,2.5161815E-1,6.296429E-2,-2.8006671E-2,-1.7645348E-2,-6.738948E-2,2.9537046E-2,-5.261928E-2,-6.1280437E-2,6.319896E-2,6.613674E-2,-5.092286E-2,-6.926885E-2,-1.1182736E-2,-6.130833E-2,-2.0131305E-2,4.728631E-2,-4.303003E-2,-4.1964047E-2,8.0522485E-2,-6.50676E-2,-2.012231E-2,-6.294091E-2,1.2565632E-2,-3.5538692E-2,-6.49098E-2,-5.916948E-2,2.8723007E-2,-4.3726098E-2,9.33453E-2,-4.5913104E-2,5.853617E-2,-6.687357E-2,-1.310896E-2,-4.911224E-2,9.370708E-2,-6.1338957E-2,1.66401E-2,-9.675472E-3,9.833046E-2,-2.7455448E-3,7.805717E-2,-9.369933E-3,-6.564555E-2,7.1378656E-2,-3.7734207E-2],"categories":[],"categories_nodes":[],"categories_segments":[],"categories_sizes":[],"default_left":[0,0,0,0,0,0,0,0,0,0,0,0,0,0,0,0,0,0,0,0,0,0,0,0,0,0,0,0,0,0,0,0,0,0,0,0,0,0,0,0,0,0,0,0,0,0,0,0,0,0,0,0,0,0,0,0,0,0,0,0,0,0,0,0,0,0,0,0,0,0,0,0,0,0,0,0,0,0,0,0,0,0,0,0,0,0,0,0,0,0,0,0,0,0,0,0,0,0,0,0,0,0,0],"id":13,"left_children":[1,3,5,7,9,11,13,15,17,19,21,23,25,27,29,31,33,35,37,39,41,-1,43,45,47,49,51,53,55,57,-1,59,61,-1,63,-1,65,67,69,71,73,75,77,79,81,83,-1,85,-1,87,89,91,93,95,97,-1,-1,99,101,-1,-1,-1,-1,-1,-1,-1,-1,-1,-1,-1,-1,-1,-1,-1,-1,-1,-1,-1,-1,-1,-1,-1,-1,-1,-1,-1,-1,-1,-1,-1,-1,-1,-1,-1,-1,-1,-1,-1,-1,-1,-1,-1,-1],"loss_changes":[3.4470966E2,1.3530542E2,1.0882524E2,1.856287E2,1.1147308E1,8.226381E0,5.2049652E1,3.5033264E0,8.495618E1,1.2659836E1,2.9241028E0,9.154142E0,3.333355E0,2.8775818E1,1.2006138E1,8.413494E0,5.556717E-1,1.9015923E0,3.2092316E1,1.571104E1,2.4100914E0,0E0,9.21875E-1,5.635346E0,3.9180403E0,1.4942341E0,3.83959E0,1.5417328E1,1.7373328E0,2.151125E0,0E0,3.002347E0,1.0244131E0,0E0,1.070072E0,0E0,3.9449313E0,2.8050308E1,2.9346733E0,4.296072E0,1.9953276E1,1.8203984E0,6.491928E-1,4.1403666E0,2.8500366E-1,1.565876E0,0E0,3.157628E0,0E0,3.3029456E0,2.4972591E0,4.2044463E0,2.0223355E0,7.4839478E0,1.5738138E1,0E0,0E0,8.281431E-1,1.3294818E0,0E0,0E0,0E0,0E0,0E0,0E0,0E0,0E0,0E0,0E0,0E0,0E0,0E0,0E0,0E0,0E0,0E0,0E0,0E0,0E0,0E0,0E0,0E0,0E0,0E0,0E0,0E0,0E0,0E0,0E0,0E0,0E0,0E0,0E0,0E0,0E0,0E0,0E0,0E0,0E0,0E0,0E0,0E0,0E0],"parents":[2147483647,0,0,1,1,2,2,3,3,4,4,5,5,6,6,7,7,8,8,9,9,10,10,11,11,12,12,13,13,14,14,15,15,16,16,17,17,18,18,19,19,20,20,22,22,23,23,24,24,25,25,26,26,27,27,28,28,29,29,31,31,32,32,34,34,36,36,37,37,38,38,39,39,40,40,41,41,42,42,43,43,44,44,45,45,47,47,49,49,50,50,51,51,52,52,53,53,54,54,57,57,58,58],"right_children":[2,4,6,8,10,12,14,16,18,20,22,24,26,28,30,32,34,36,38,40,42,-1,44,46,48,50,52,54,56,58,-1,60,62,-1,64,-1,66,68,70,72,74,76,78,80,82,84,-1,86,-1,88,90,92,94,96,98,-1,-1,100,102,-1,-1,-1,-1,-1,-1,-1,-1,-1,-1,-1,-1,-1,-1,-1,-1,-1,-1,-1,-1,-1,-1,-1,-1,-1,-1,-1,-1,-1,-1,-1,-1,-1,-1,-1,-1,-1,-1,-1,-1,-1,-1,-1,-1],"split_conditions":[2E0,6.1E-1,1.33E1,-1.56E0,1.35E0,2.46E-1,1.75E0,8.0621E-2,1.08141775E1,3.23E-1,2.4549645E6,1.04126625E1,-6.4E-2,1.57E1,-4.7E-2,1.12E-1,8E-1,1.0125121E1,1.2E-3,1E-2,4.7E-1,3.802277E-2,5.8E-1,3.474E2,1.35E0,4.1E-1,5.2E-1,6.1E-1,4.5E-5,-4.7E-2,8.659162E-2,1.68E-1,-2.3E-1,-6.589357E-2,2.6E-1,-6.685337E-2,1.359927E2,3.19449E3,1.77451E0,3E-1,1.1E0,1.427E2,-3.7E-2,1.9E-1,1.6E0,1.8E0,8.6740315E-2,9.3E0,-4.8616406E-2,6.531E-1,3.7478E2,-2.65E-4,1.4839E1,1.0215344E1,-1.25E-1,3.5652768E-2,-6.321493E-2,9.9E-1,-1.7117E-1,6.296429E-2,-2.8006671E-2,-1.7645348E-2,-6.738948E-2,2.9537046E-2,-5.261928E-2,-6.1280437E-2,6.319896E-2,6.613674E-2,-5.092286E-2,-6.926885E-2,-1.1182736E-2,-6.130833E-2,-2.0131305E-2,4.728631E-2,-4.303003E-2,-4.1964047E-2,8.0522485E-2,-6.50676E-2,-2.012231E-2,-6.294091E-2,1.2565632E-2,-3.5538692E-2,-6.49098E-2,-5.916948E-2,2.8723007E-2,-4.3726098E-2,9.33453E-2,-4.5913104E-2,5.853617E-2,-6.687357E-2,-1.310896E-2,-4.911224E-2,9.370708E-2,-6.1338957E-2,1.66401E-2,-9.675472E-3,9.833046E-2,-2.7455448E-3,7.805717E-2,-9.369933E-3,-6.564555E-2,7.1378656E-2,-3.7734207E-2],"split_indices":[35,80,34,20,80,7,86,12,33,7,2,33,51,18,51,7,71,33,75,65,86,0,86,9,68,80,83,80,13,54,0,53,78,0,47,0,1,24,15,85,71,9,54,71,10,69,0,34,0,39,24,72,61,33,45,0,0,18,17,0,0,0,0,0,0,0,0,0,0,0,0,0,0,0,0,0,0,0,0,0,0,0,0,0,0,0,0,0,0,0,0,0,0,0,0,0,0,0,0,0,0,0,0],"split_type":[0,0,0,0,0,0,0,0,0,0,0,0,0,0,0,0,0,0,0,0,0,0,0,0,0,0,0,0,0,0,0,0,0,0,0,0,0,0,0,0,0,0,0,0,0,0,0,0,0,0,0,0,0,0,0,0,0,0,0,0,0,0,0,0,0,0,0,0,0,0,0,0,0,0,0,0,0,0,0,0,0,0,0,0,0,0,0,0,0,0,0,0,0,0,0,0,0,0,0,0,0,0,0],"sum_hessian":[2.5454373E3,1.8708242E3,6.746129E2,8.4557465E2,1.0252496E3,1.376927E2,5.369202E2,3.215494E2,5.240252E2,3.8272452E2,6.425251E2,3.9576954E1,9.811575E1,4.939187E2,4.300153E1,4.9749397E1,2.7180002E2,7.643999E1,4.4758524E2,2.1918764E2,1.6353688E2,2.2373974E0,6.4028766E2,2.1789751E1,1.7787203E1,7.702069E1,2.1095066E1,4.7912802E2,1.4790652E1,3.668907E1,6.3124585E0,1.3749955E1,3.5999443E1,2.6667972E2,5.1202965E0,6.755886E1,8.8811245E0,4.1281607E2,3.476917E1,1.229796E2,9.620803E1,2.9561315E0,1.6058075E2,3.9993496E1,6.002942E2,1.9206347E1,2.583404E0,1.5713824E1,2.0733776E0,1.3785588E1,6.3235104E1,7.421683E0,1.3673384E1,3.6709592E2,1.1203211E2,1.3774884E0,1.3413164E1,3.4042038E1,2.6470346E0,8.688311E0,5.061644E0,5.7668514E0,3.0232592E1,1.6658015E0,3.4544947E0,5.760637E0,3.120488E0,3.9192786E2,2.0888216E1,1.5964586E1,1.8804585E1,8.522274E1,3.7756863E1,5.103889E1,4.5169144E1,1.5758556E0,1.3802757E0,1.5617422E2,4.406528E0,3.098127E1,9.012226E0,7.2486835E0,5.9304553E2,1.752696E1,1.6793863E0,1.3014835E0,1.4412341E1,1.0631777E1,3.153811E0,5.2254093E1,1.0981007E1,2.3596601E0,5.0620227E0,9.286722E0,4.3866615E0,6.3573375E0,3.607386E2,3.4729576E1,7.730253E1,3.2463725E0,3.0795664E1,1.4480906E0,1.1989441E0],"tree_param":{"num_deleted":"0","num_feature":"88","num_nodes":"103","size_leaf_vector":"1"}},{"base_weights":[2.8493983E-1,5.947945E-1,-1.5280473E-1,7.2250533E-1,-1.2561285E-1,4.355134E-2,-5.312432E-1,5.6288296E-1,9.3280214E-1,2.6585743E-1,-4.7515917E-1,8.3485556E-1,-4.77152E-2,3.15976E-1,-5.6697583E-1,-1.0016548E-1,7.509995E-1,5.10316E-1,9.453271E-1,1.1425529E-1,9.12448E-1,-5.312417E-1,9.091615E-2,-1.6473308E-2,8.56406E-1,-2.6918927E-1,3.2995287E-1,8.7439984E-1,-5.2255105E-2,8.882525E-2,-5.888059E-1,-2.373053E-1,6.91655E-1,9.0863925E-1,5.571726E-1,1.2671354E-2,9.24395E-2,-3.2354966E-3,9.477088E-1,-5.934176E-1,3.1794658E-1,9.501902E-2,2.3228675E-2,8.136384E-2,-5.705217E-1,8.861982E-1,8.0512345E-2,-3.338356E-1,4.8901868E-1,5.214203E-1,1.4962082E-1,-8.265256E-3,1.2162894E-1,3.5230875E-1,-5.5164874E-2,-6.148929E-1,5.037739E-1,-3.4798563E-2,4.7727592E-2,9.373971E-2,1.5015281E-2,9.366092E-2,6.6622995E-2,8.014508E-2,2.2134693E-2,-6.895375E-2,5.8966275E-2,4.31139E-2,9.51372E-2,-1.570267E-2,-6.7777894E-2,9.419533E-2,2.0174474E-2,-6.0058486E-2,9.35296E-2,9.047403E-2,-4.485414E-3,6.1867356E-2,-5.0142474E-2,-4.4306718E-2,2.2278415E-2,-4.245052E-3,8.390167E-2,3.5231467E-2,7.7366315E-2,6.540289E-2,-1.9098785E-3,-1.7790135E-2,9.296892E-2,-6.293648E-2,4.251237E-2,-3.2900225E-2,9.1239125E-2],"categories":[],"categories_nodes":[],"categories_segments":[],"categories_sizes":[],"default_left":[0,0,0,0,0,0,0,0,0,0,0,0,0,0,0,0,0,0,0,0,0,0,0,0,0,0,0,0,0,0,0,0,0,0,0,0,0,0,0,0,0,0,0,0,0,0,0,0,0,0,0,0,0,0,0,0,0,0,0,0,0,0,0,0,0,0,0,0,0,0,0,0,0,0,0,0,0,0,0,0,0,0,0,0,0,0,0,0,0,0,0,0,0],"id":14,"left_children":[1,3,5,7,9,11,13,15,17,19,21,23,25,27,29,31,33,35,37,39,41,43,-1,-1,45,47,49,51,53,-1,55,57,59,61,63,65,-1,-1,67,69,71,-1,-1,-1,73,75,77,79,81,83,85,-1,-1,87,-1,89,91,-1,-1,-1,-1,-1,-1,-1,-1,-1,-1,-1,-1,-1,-1,-1,-1,-1,-1,-1,-1,-1,-1,-1,-1,-1,-1,-1,-1,-1,-1,-1,-1,-1,-1,-1,-1],"loss_changes":[3.756765E2,1.4928168E2,8.536457E1,4.571643E1,3.365559E1,5.4714806E1,1.2058594E1,9.8069244E1,2.6549683E0,1.1288658E1,1.0560595E1,1.8286934E0,5.6943382E1,3.4432206E0,1.2495766E1,1.9115133E1,1.8197174E1,3.9537683E0,1.3687744E0,1.3924914E1,3.4228516E-1,7.087784E0,0E0,0E0,1.7050858E0,2.1191486E1,8.61297E0,2.2673192E0,2.3966548E0,0E0,1.0910126E1,1.1990009E1,3.3216124E0,1.6540833E0,2.2557495E1,4.3585825E0,0E0,0E0,6.746216E-1,6.904979E-1,5.2226233E0,0E0,0E0,0E0,6.1032867E0,1.3165054E0,1.5446512E0,2.416975E1,6.380618E0,4.9179153E0,1.1163348E1,0E0,0E0,2.1957521E0,0E0,5.741455E0,3.4385104E0,0E0,0E0,0E0,0E0,0E0,0E0,0E0,0E0,0E0,0E0,0E0,0E0,0E0,0E0,0E0,0E0,0E0,0E0,0E0,0E0,0E0,0E0,0E0,0E0,0E0,0E0,0E0,0E0,0E0,0E0,0E0,0E0,0E0,0E0,0E0,0E0],"parents":[2147483647,0,0,1,1,2,2,3,3,4,4,5,5,6,6,7,7,8,8,9,9,10,10,11,11,12,12,13,13,14,14,15,15,16,16,17,17,18,18,19,19,20,20,21,21,24,24,25,25,26,26,27,27,28,28,30,30,31,31,32,32,33,33,34,34,35,35,38,38,39,39,40,40,44,44,45,45,46,46,47,47,48,48,49,49,50,50,53,53,55,55,56,56],"right_children":[2,4,6,8,10,12,14,16,18,20,22,24,26,28,30,32,34,36,38,40,42,44,-1,-1,46,48,50,52,54,-1,56,58,60,62,64,66,-1,-1,68,70,72,-1,-1,-1,74,76,78,80,82,84,86,-1,-1,88,-1,90,92,-1,-1,-1,-1,-1,-1,-1,-1,-1,-1,-1,-1,-1,-1,-1,-1,-1,-1,-1,-1,-1,-1,-1,-1,-1,-1,-1,-1,-1,-1,-1,-1,-1,-1,-1,-1],"split_conditions":[7E-3,2E0,-1.9E-1,1.25844E-1,-1.43E2,3.3805E0,8.6E0,6.1E-1,1.4734E0,1.02171E-1,1.38E0,4.38E-3,9.794244E1,1.9286816E1,2.09E0,2.09336E3,9.26E0,1.776E3,2.5E-2,5.1E-1,4.97E-1,-4.64E0,9.091615E-2,-1.6473308E-2,1.417787E2,8.8E0,4.391301E1,4.7E-2,1.3007E1,8.882525E-2,3.79E0,1.59E-1,2.19E-1,9.2E-1,3.1E-1,1.5083E1,9.24395E-2,-3.2354966E-3,1.173E1,1.4E-4,4.73E0,9.501902E-2,2.3228675E-2,8.136384E-2,5.3E1,1.20111E0,1.3390169E1,1.46E0,3.2735558E1,7.4E-1,8.60779E0,-8.265256E-3,1.2162894E-1,1.3216E1,-5.5164874E-2,1.2E0,6.72E2,-3.4798563E-2,4.7727592E-2,9.373971E-2,1.5015281E-2,9.366092E-2,6.6622995E-2,8.014508E-2,2.2134693E-2,-6.895375E-2,5.8966275E-2,4.31139E-2,9.51372E-2,-1.570267E-2,-6.7777894E-2,9.419533E-2,2.0174474E-2,-6.0058486E-2,9.35296E-2,9.047403E-2,-4.485414E-3,6.1867356E-2,-5.0142474E-2,-4.4306718E-2,2.2278415E-2,-4.245052E-3,8.390167E-2,3.5231467E-2,7.7366315E-2,6.540289E-2,-1.9098785E-3,-1.7790135E-2,9.296892E-2,-6.293648E-2,4.251237E-2,-3.2900225E-2,9.1239125E-2],"split_indices":[65,35,48,12,42,27,34,